824 100
the 1.099198 0.67374974 -1.5735269 -0.69179016 0.46503597 -0.74267095 0.22874705 -0.09141035 0.59599656 -0.7450382 1.1670396 -0.41370365 0.6310699 0.6659091 -0.4931638 -0.7984363 1.2294476 -0.66322595 -0.0027694907 -1.4821057 -0.06739402 0.04834542 0.25933135 0.281411 0.81346333 -0.5908591 0.91488177 0.6546743 -0.053133793 -0.222038 0.29779878 -0.09990367 -0.53380024 -0.4503539 -0.08095302 -0.34776452 -0.3391193 0.07158696 0.040991444 -1.6889982 -0.7160279 0.9402677 0.17666173 0.9350715 0.7320558 -0.08959312 0.24085045 1.2850938 0.7449302 -0.84026295 0.59929657 -0.81843525 -0.5720365 -0.47632524 0.7835522 -0.83767915 0.2850127 -0.8938707 0.96454203 -0.48169792 -0.15741175 1.0051723 0.93188906 -0.49455383 -0.73628664 -0.18365532 -0.5351431 0.31850627 0.1351957 1.0768192 -1.6573153 0.82673585 0.35844165 0.4131999 -1.1109589 -0.54860264 -0.2743989 -1.3865374 0.5019639 -0.25159758 1.2299509 -0.6174513 -0.27709264 -0.5825081 0.2141741 0.002898225 0.8374696 0.72724116 1.021212 0.07914731 0.15819839 -0.112178184 0.62148845 -0.9117813 -0.11226994 -1.3982958 -0.3643458 -0.044888835 0.55790263 -0.7081103
and 0.15839887 -0.7306692 -1.3012692 -0.79003215 -0.9878853 0.25846374 -0.5444286 -0.2028319 0.21736549 0.35121188 -0.28245956 0.85286134 0.22273009 -0.05438774 -0.29496533 -0.17696835 -1.1739537 0.052405342 -0.118667744 -0.2607876 0.0575628 0.19137037 -0.4269573 0.057116993 -0.59329116 0.31853428 0.24132824 0.35936794 -0.47082147 -0.38816333 -0.2342725 0.5696653 -0.39175564 -0.4178506 -0.16316132 -0.002003569 0.96806294 -0.38237402 -0.20099247 -0.67851925 -0.2363183 0.27512157 0.19775423 -0.3632232 0.89462095 -0.6463345 -0.28935143 0.4762246 -0.26703098 0.59472406 0.36761808 -0.28370303 0.5708638 -0.057645738 0.0892396 0.1715008 -0.48952296 0.17587712 -0.33075926 -0.28217387 0.37852657 -0.1309487 0.37852147 0.8016886 -0.6428453 0.5028668 0.747151 0.3301566 -0.15373494 0.02125321 -0.33865446 -0.045419257 0.25131756 -0.06360282 -0.02092721 0.06822037 0.286196 0.2933925 -0.08960081 -1.0784881 -0.62954205 -1.145662 0.6220504 -0.35938773 0.16184662 -0.011842912 0.11605182 0.35673738 1.031532 -0.14706236 0.78673273 -1.0523801 -0.5200796 0.33934683 -0.57691073 -0.6353097 0.014898402 -0.37326103 -1.4062755 0.68895805
to -0.2631942 -0.54413307 0.24146748 0.8052907 -1.0594192 0.34978852 -0.6233722 -0.6086861 0.34606412 0.99601436 -0.062605776 -0.19576259 -0.17790034 1.2470794 0.22661325 0.04578251 1.7021806 1.0302746 0.58392334 -0.64837897 -0.3667326 -0.94591016 -0.35447937 -0.27049047 -0.6577518 -0.1281978 -0.8109755 -0.109294124 -0.586064 -1.31791 1.3679829 0.13309237 -0.40726998 0.10923477 1.083557 0.27429217 0.14388524 0.5512173 1.8596518 -1.4323735 0.13851085 1.5264065 1.3382441 -0.7375253 -0.007270193 -2.1984816 1.4123526 -0.6310645 -1.2277471 0.5361375 -0.34307814 0.0149595095 1.6441716 -0.94241637 -0.98204464 0.7665075 0.29793444 0.9988856 -1.5544966 0.26449943 -0.31189364 -0.494684 -0.008325163 0.99549323 -1.109888 0.86642146 2.5142362 0.5329973 -0.2313496 -1.8619521 -0.8460984 -0.12978195 -0.6401047 -0.5590516 0.13155723 -0.34292734 0.7377218 0.29468846 1.0725495 -0.7757726 -1.0851778 0.29754683 1.7653672 -0.11204413 -0.6398804 1.8052425 0.096117266 -2.0753422 0.78385353 -2.3250308 0.9251513 0.4859644 -1.1853845 0.4460561 -0.9270759 -0.97137725 0.71435684 0.13176627 0.7795809 -0.6971334
of 0.7712805 -2.0081074 -0.44359204 0.25088066 -0.3815691 0.49685007 -0.919887 1.0954161 0.776255 0.108136736 0.67530596 0.02001201 1.0807586 0.68389356 1.7848226 -0.11321761 -1.6683465 -0.58925855 0.40658042 -0.048572354 -0.6529931 0.1962582 -1.1917192 0.775075 1.3815542 0.98024935 0.8809939 0.99987125 -1.6480881 -1.0869961 -0.27617022 -0.28508833 -0.22729251 -0.9175737 0.8784129 -0.27476764 1.1456511 -0.49592257 -1.0130111 -0.28369355 0.0494826 -1.5223176 -0.7598852 -0.82006776 -0.021273509 -0.39752272 0.13549076 0.95187664 2.0967863 -1.0211183 0.48917207 -0.8772541 -0.5178965 0.56001204 1.0195876 1.255614 -0.9267677 -1.6773553 0.35938936 -0.92541414 0.50981927 -0.7681733 0.91813225 0.8427592 0.034305 1.3440831 -0.29616556 -0.90537316 0.2810434 -0.6271518 -1.0150602 -1.1878828 0.046825305 -0.8784274 -0.49147105 -0.10545172 -1.4568071 0.1694317 1.5288136 1.9192966 -0.39442477 1.4099199 -0.75321126 1.09962 0.4753513 -0.77549744 -1.6178516 -0.5826613 0.5303485 -0.5019308 0.5025233 -0.13142271 -0.42905745 -0.7229155 0.9525728 0.9956403 -0.6425566 -0.27676243 0.016666738 -0.47110564
a -0.24511658 0.95632225 -0.10000497 0.5832859 -0.5303512 -2.5503306 -1.6666254 -0.10025586 0.47466674 -0.69370145 0.670948 -0.95058835 0.14150201 -0.9473088 -0.7253696 -0.6626634 0.14874442 0.40757802 -0.32767275 0.43476388 0.67240745 1.4269255 -1.614461 -0.43365052 1.5018437 -2.7745173 -1.1865168 0.9445178 -0.36855206 0.037509035 0.60339 -0.067945346 0.29337922 -0.9069691 -0.019892368 -1.1617733 0.40541467 0.22716014 0.5222689 0.15539539 -0.3055487 0.80921626 0.12863363 -0.008668793 -0.001722148 -0.22042575 -0.44864193 1.919675 -0.91294503 1.4662014 0.9192201 0.64293164 -0.28266457 0.18717562 0.14399678 -0.60027623 -0.10942904 -0.14861783 -0.88742226 -1.8463414 -0.55016196 0.44624025 -0.20461452 0.30406308 -0.24790029 1.2224594 -1.2062558 -0.1893621 0.12738833 1.049563 0.48736516 -0.12583898 0.053509366 0.98684037 -0.98554367 0.09916991 -0.7154874 -1.0043333 1.8590007 1.3548015 1.1467294 1.4902252 -0.76167613 0.62554896 -0.20682766 0.94788116 0.76332384 0.7766794 0.4071399 0.3598639 -0.43540975 0.00083835854 0.030357014 -0.65373224 0.43428096 0.008989967 0.7606336 -0.38843778 1.8614984 1.0733572
that 0.34341806 0.81909615 -1.8251139 -0.031331968 -0.2951545 0.4050576 -0.54521966 0.3988315 -0.13601635 -0.8120765 0.3214333 0.55730176 -0.791125 0.8527448 -0.47684804 0.339007 -1.4235355 -0.24958648 0.31896827 0.27978426 -1.1557083 -0.3228091 0.065692656 -0.7152801 -0.2096705 0.14235401 -0.26702842 0.5744002 0.34624615 0.055001624 -0.203259 -0.010549782 0.10163414 -1.5798241 -0.13439015 -0.13413066 -0.19308947 0.25550553 0.7046646 -0.06711879 0.15411857 -0.3830853 -0.09115284 1.2922226 0.24371229 -1.2277943 -0.086294055 -0.21424258 1.2305733 -0.16457735 0.18387012 0.09413928 1.0004311 1.2497863 0.19159268 -0.13472623 -0.33647496 -1.0317584 0.36363345 0.7925272 0.23854312 0.12493485 -0.4714308 0.1669321 -0.18935749 1.5045975 -0.119846955 1.0480394 0.117695674 -0.09674439 0.24452032 -0.012183429 -0.7072096 0.7066237 0.17753525 -0.23047836 -0.2930782 0.35950464 0.52334785 -0.43884256 -0.57302046 -0.5025194 1.3015205 -0.15605481 0.030420149 1.2158777 -0.13674471 0.464914 -0.15154314 -0.4402365 0.089192405 -0.46638742 0.41495103 1.2855779 -0.04646169 0.09432937 -0.9161494 0.01957748 1.4302431 -0.08900002
i -1.4135376 -0.09270275 0.3958146 0.53864026 -1.3682345 -0.7175227 1.0183965 -0.35616294 -0.0020362667 1.7374626 2.8453586 1.6970733 -1.4857254 2.9151003 -1.9444577 -0.68843246 -2.2691574 1.5595473 0.25501007 -0.17640062 0.15934353 1.009044 -0.4804595 -1.4912798 -1.6898346 0.036058854 -1.9059342 -0.27512383 -1.3674914 -1.7128268 0.32762542 -3.7814887 0.45564508 0.5183088 -1.6042106 -2.3135262 -0.015362174 -0.4725632 0.2507194 0.3034348 -1.3831863 2.3553498 -0.6706682 -0.13954191 -0.30988765 -0.55565983 0.5261934 -0.3015555 -0.45324767 2.1241896 -0.88681877 0.41096714 -0.34529528 -0.17030546 2.0354955 0.24795435 0.7252396 0.23835044 -0.42372027 0.25938445 -0.3018621 -0.85443497 -1.0549726 0.8980978 -0.46374246 -0.16028908 4.385387 1.0818349 -0.19210224 -0.8031788 2.4823372 0.36537457 0.045756128 2.6609108 2.4305592 -0.3318633 -1.0851903 2.234579 1.7504995 -0.8856373 -1.1939675 0.67519855 1.72673 -0.44958833 -2.00283 -1.6341821 -1.4984734 1.8859804 -0.7944711 0.42132914 -0.47303903 0.72776264 -0.092052154 -0.20900452 -1.4919856 -0.6527247 -2.3345447 0.07759691 -0.028842203 1.5286108
in 0.24441627 0.24103159 1.7064415 0.062185623 0.04743908 -0.024020778 -1.4688764 -0.13087612 0.94372326 -0.8747106 0.18588275 0.7110439 -0.21948479 0.28421313 0.25350553 -0.3397217 -0.17048909 -0.33451986 0.3867248 -1.4402165 0.05053609 0.32296148 -0.018529283 1.5784994 0.52484626 1.3261961 0.31229624 -0.7089207 -1.1628807 -1.1966449 0.12427232 -0.40925604 -0.5229499 -1.4531184 1.044127 0.64225614 0.5505115 0.711217 -0.92529714 -0.5228454 -0.31031355 -1.4891949 -0.62316495 -0.56507534 -1.3057454 0.8860325 0.26459858 0.03982519 0.311556 -1.1172576 0.5419861 -0.13689299 0.2918337 1.0755541 0.46682504 0.16310589 -0.5330455 0.20700872 -0.2604375 -0.28773168 -1.3140527 1.6473153 0.7096989 -0.91506517 0.8927311 0.030568955 0.33492622 0.8295187 -0.29236916 -0.6489042 -1.9255884 0.16901208 0.2615871 -0.31739524 -0.64577717 1.0668474 0.41738135 0.30710748 0.3949128 1.0068343 1.1810786 -0.8509394 0.5653939 0.7282952 0.51334345 -0.045423374 -0.026521763 1.1022843 0.70704573 -2.0566843 0.24764645 0.3665784 0.4584077 -0.08511553 0.47574475 0.5357727 -0.078995 0.9435259 -0.4711085 0.5360139
it -1.0488466 0.6836298 -2.345227 -0.3645826 -0.11148967 -1.095086 -1.1099594 0.29806402 -0.75191885 -1.2325013 -0.20572701 -1.074711 -1.004957 0.2341165 -1.37097 -0.43109936 -0.43590003 -1.2569882 0.094360135 0.18827899 1.5317103 0.11502094 0.36384085 -1.3358039 0.23341572 -0.32843417 -0.6878515 -0.5104724 1.1789302 0.118118085 -0.109696224 0.59171355 0.77743477 -0.924292 0.41867533 -0.59335136 -0.98357844 -0.5705029 -0.94516504 0.999235 0.6562579 1.0747391 -0.013099277 0.7474688 -0.2271664 -0.3032379 0.539623 -0.28975537 1.5031534 0.5190623 0.40480977 -0.541154 -0.29348066 -0.9868476 -0.63564384 0.14780912 0.22539365 0.26613298 -0.113727 -0.7125441 0.21837726 -0.61782366 -1.7116611 -0.48021978 -0.17956316 1.2938676 -0.23016153 0.76729393 1.1208875 -0.109488375 0.50168455 -1.3197926 -0.7260262 1.6396492 -0.74097425 -1.5259818 0.9877664 0.50936025 0.90328616 -0.32140744 -2.102199 0.6005864 0.7103235 -0.59941566 0.17988381 0.6875784 -1.4778043 -0.5626888 -0.86666805 0.20429774 -0.43147197 0.41358468 1.2325662 0.33605745 -0.5438819 0.20088723 -0.20528717 2.1279602 1.7343197 -0.2778056
you 0.517834 0.8079983 0.33382076 -0.3425615 1.5495622 -0.25106034 -1.2903873 0.75892043 -1.4139686 0.9804544 0.66100466 -0.38883948 1.3754625 2.0577383 -0.25011578 1.580308 0.9320886 -0.43937093 -0.47476768 0.7555866 0.3709237 0.97045463 0.93701804 -1.7973777 -0.17638938 -1.21893 -1.7335635 -0.10702194 -1.3724335 -2.0636303 -0.25593832 -2.9944236 0.6189331 0.8544248 -0.5710815 -1.8162874 0.5123998 -1.3485447 1.9389696 0.036259383 -0.13891496 -0.93875986 0.21723866 2.8361511 0.79508847 1.0758171 0.31468946 -0.11387579 0.41378692 1.5388277 -0.5630017 1.461449 -0.5308887 0.7401795 0.3652883 2.634663 -1.1577113 -0.4833052 -0.7843306 0.64844096 0.22148314 -0.4697852 0.5662901 -0.78287 0.33367032 -0.9525348 2.9221628 0.12720346 -0.162428 -0.51654965 0.76987886 1.3992008 0.58929795 3.0861876 2.3925858 -0.9405353 1.4496305 1.2746608 1.0274183 0.25355303 -2.9864461 -0.2672088 2.518751 -0.021816835 -2.481422 1.5686553 0.27870452 -0.5470544 1.4749275 1.2811571 -1.6187993 -0.3883302 -1.0309732 1.960609 -1.2355015 -0.16009511 0.7842086 -0.5262486 0.49105525 1.9398004
we -1.4577655 0.8862159 0.3144015 0.61813426 1.6412642 0.07564794 1.9646033 0.5115999 -0.058635782 0.7096798 -0.87400293 0.102642074 1.4608383 2.8131561 -0.9393926 0.9496494 -2.5733094 0.92311853 1.1982832 -0.69228315 0.19555943 0.95309806 -0.18060942 0.50004256 0.37443286 0.44230846 -1.2613013 0.123333655 -1.1267089 0.44941348 1.2846926 -2.600217 -3.1126227 -1.7931055 0.31473362 -2.0511055 0.7050162 -0.53269964 1.4960178 -0.88441086 -0.7627884 2.2222853 -0.9721477 1.0814245 1.4409202 0.04257456 1.6348479 0.8833394 0.17132793 0.20850635 0.12134657 1.5402217 1.034227 1.016196 0.12717825 1.4928713 -2.455072 -0.50312155 -1.095095 0.4328076 0.9072945 -0.89933753 -0.45759872 -0.080412574 0.24000284 -1.8304485 1.2084594 1.0383022 -0.27820936 -0.89277405 -0.88083845 1.5169187 -0.3088489 1.4913553 2.2366967 -1.7311735 0.72366744 -0.23038913 0.58469605 -0.20822328 -1.1659344 -0.712027 1.7131647 -0.72063154 -2.5837145 1.922332 -0.24453543 -1.8593806 1.1728792 -0.61436236 -0.35455143 -0.05612497 -1.5186118 1.4970279 0.5205309 -0.28970897 0.016955297 -0.77295274 0.6057222 1.2001929
is -0.12053272 -0.28849718 0.19403642 0.5695734 1.0983111 0.04920932 1.0666608 -0.3378296 -1.1032207 -0.58585066 0.7743861 -0.561962 -0.011126325 -0.015014588 1.3638473 -0.6706126 1.230274 -0.017931603 0.0533776 0.32468346 0.29656613 -0.61135566 1.0731937 0.38620335 0.37456095 0.042837493 -0.85975343 -1.301041 0.2948071 0.5233056 -0.9450562 -0.4047162 -0.61422604 0.31290883 1.5762365 1.3488808 -1.0415909 -1.4600295 1.5009663 -0.24413297 1.0875349 -1.562842 0.11236022 -1.7475064 0.54225737 1.1012113 0.07920336 -1.9236841 -0.6054259 -1.4251049 0.20359223 1.1692367 -1.0822804 -0.09602005 0.23281045 -0.36745238 -0.43288624 -0.25410616 -0.5375557 -0.19839619 -1.3366534 -0.2571556 -1.1567944 -0.4798219 2.350279 -0.73245704 1.0329852 -0.98433346 0.21841986 0.29600114 -1.5172447 -0.29764688 -1.0336742 -0.4896444 -0.40074524 -0.44673896 -1.0255097 -0.8893854 -0.7146321 0.46140027 1.2404553 0.16422516 -1.0199381 0.71054286 -1.3057773 -0.82949615 1.4787631 -0.46626285 0.52199656 1.5206832 -0.06945161 1.0537727 -0.9244325 -0.5693361 1.9380703 1.0141007 -1.3813565 -0.43524763 -0.09300923 -0.8342504
s -1.3114138 -0.6548024 -0.72699815 1.0130914 -0.39534128 0.84751135 0.6287568 0.40243828 -0.5377841 -0.45362192 -0.09624756 -1.9355359 -1.7869543 -1.2445133 0.79627955 -0.14714026 0.99160355 -0.6988258 -1.0555301 2.6586077 0.57564473 0.23710012 1.1903735 0.40607858 0.81390584 0.27362394 0.18646173 -0.5399037 0.68637383 0.8724815 -0.7004918 0.667618 0.5254589 0.8516035 0.60809195 0.35469013 -1.1294625 -0.1432288 0.22654524 1.035423 1.6609974 -1.1193353 0.12566033 -1.144287 0.24830297 0.68614817 0.6175533 -0.14226049 -2.826373 -0.9791815 0.35112086 1.1515605 -0.5340674 -1.6805707 0.90526587 0.34918875 -1.0939872 0.76690966 -0.39716104 -0.80440885 -0.5288031 0.6238668 -1.8701915 -1.6157728 1.786627 -2.2101772 1.5432439 -1.4439273 0.096098736 -0.36204612 -1.218323 -0.51636696 0.48416123 -0.520875 -0.9688468 -0.12134849 -0.3725243 -1.054296 -0.69597995 1.4459648 -0.3539212 -0.21467698 -1.7361414 1.2307857 -1.4713124 -0.9112799 -0.60381496 -0.05999563 -0.25044593 1.3711942 -1.5107665 1.0201247 -0.014353397 -0.56105345 1.6282818 0.121635295 -0.45584217 -1.4230611 -0.73852473 -0.4805479
this -0.08088774 0.7155237 -1.492453 -0.019147394 0.16403037 -0.8345352 -0.39625552 0.12674828 1.3119706 -0.81074804 0.025531517 -0.58931905 -0.06170563 0.35426757 0.20997837 -0.7340748 -0.041496016 -0.19309542 -0.5007857 0.32332325 -0.6240376 0.7817207 -0.11114297 -1.1871878 1.4109249 -1.6600944 -1.0934911 -0.74204826 -0.7375748 -0.40931317 0.34611225 -0.5931508 0.052212425 -1.8344154 -0.5292941 -1.0810188 -1.1924416 -0.26165944 -0.49777418 -0.7678923 -0.2834345 0.09518819 0.9826568 0.02999514 0.7542119 -0.27988967 0.44133583 0.74318063 -0.56584305 -0.38754618 -0.07741302 1.1319679 0.039107412 -0.48724326 -0.08160773 -0.78679305 -1.4222808 -1.123027 0.88679355 0.77732897 -0.042685673 -0.12414617 -0.6539902 0.13526432 -1.1412052 0.41852662 -0.42048556 0.5809194 0.13578635 0.49145934 0.1475765 -0.6732022 -0.8913293 1.0586225 -0.21702029 0.38924748 -0.78202415 0.10470782 0.811764 -0.85443354 0.5022595 -0.1510263 0.7888164 0.20478466 0.2733094 0.51133204 -0.33282894 0.64175415 0.56717634 0.31573394 -0.48611274 -1.3407781 0.12788658 -0.95248526 -0.105848774 -0.03964646 -1.5333263 0.35853565 3.0815032 -1.280164
so 0.35159767 0.095984094 -0.48834798 0.44706807 -0.4926124 -0.44772214 -0.7998804 -1.2602955 0.5220893 0.48584944 0.041451138 1.226088 -0.40926874 0.190257 -0.17583413 0.60553044 -0.7212796 0.60803765 -0.81794745 0.5881676 -0.843145 0.6477479 -0.15069164 -0.23351343 -0.52442396 -0.14039168 -0.2950746 0.76807463 1.3162304 0.8485371 -0.3939054 0.16479875 0.6417561 -0.45278808 0.5311841 -0.54026896 -0.5359711 -0.0071289465 -0.29834616 0.43470576 -0.22453661 0.49833995 0.19629939 0.59300685 0.6580261 -0.2915365 0.024282534 -0.8687089 -0.45808366 0.3627127 -0.35573146 -0.16724586 -0.2600217 0.69037265 0.13945147 0.20977275 -1.270129 0.13457434 -0.7311868 0.22021 0.63491446 -0.7054403 -0.4111676 0.64890945 -0.01049778 0.6890359 -0.45689484 -0.1509707 -1.1143785 0.0650595 1.0505551 0.38884887 -0.33093098 -0.67414975 1.7644572 -0.40773395 0.7989553 0.4880338 0.64860123 -0.983308 -1.6443228 -1.715693 0.6815602 -0.06333982 -0.33065486 0.14861454 -0.62372947 0.46053734 -0.38273033 -0.32292667 -0.53589004 -1.3766583 -1.3966444 -0.43113604 -0.10316503 0.4202944 -0.57769966 -0.27006438 -0.15906487 0.26304945
they -0.57228285 1.5944499 1.348639 -0.77860045 0.007431599 0.088265516 1.0964726 -1.5938348 -0.8055525 1.8445019 -0.083863676 0.2078288 1.8419298 1.7494483 -0.033110514 1.3805727 -1.9916124 0.6565389 2.3708014 -0.33868027 0.057457387 -0.16084476 1.251567 -0.50443923 0.24447118 0.82044107 0.4669925 1.2934755 -0.2805481 -2.0161235 1.052988 -1.8063338 -1.8240957 -0.3438495 -0.012811226 -1.8245717 2.2629154 0.17494325 -0.20938434 -0.21901144 -0.29031745 1.4711603 -0.90031624 2.001455 0.8776953 -0.106761925 2.187694 -1.0713794 0.7200451 2.1475008 -0.60049486 1.9750261 0.7005361 0.16144623 -1.2764494 1.050911 -1.9630129 0.34851572 -0.96977824 0.52910984 1.6306031 -0.48805732 1.2606466 -0.35391375 -1.2453324 -1.235377 0.78359765 0.33139947 0.86508805 -1.0950164 0.42356926 -0.15279752 0.2605014 1.4019401 -1.1296573 -1.4427817 2.5611448 0.5653533 -0.24146424 0.5628866 -0.7544415 0.119945034 1.1435205 -1.38019 -2.7561772 -0.0073314556 0.8576951 -1.2926632 1.5600796 -0.23016512 0.76257044 0.03669011 0.7842601 1.3501161 -0.47440705 -1.6639951 0.58675784 0.14718129 0.60806787 2.832375
was 0.07097491 0.1566333 0.21849458 -0.5565355 -1.6102092 1.4108821 1.0499165 -0.1422134 -0.61520547 1.1817546 1.0874325 -1.046063 -1.0013021 -2.234448 0.21575573 -2.2953792 -0.5238592 0.623157 -2.066833 1.7437347 1.1163564 -0.09875191 -1.1358714 2.3264554 -0.15049586 0.41865966 -0.4989735 -0.27223355 0.32756853 1.507464 0.0735702 -0.016925832 0.42996344 -0.33601862 -0.38093603 -0.75600296 -0.6810667 0.9535548 0.14759076 -1.1786687 1.3954241 1.853808 0.51256055 -0.0129501 -0.55696 1.040649 -0.9327656 -0.43956318 -2.1295896 -0.72324944 -1.9828776 0.5091437 0.2808196 -0.89741504 0.83409834 -1.5827187 0.21522288 0.2576388 0.9133317 -0.0028827067 -2.6381907 -1.5534335 -1.2721473 -0.60023105 1.8051474 -0.973584 0.9320878 -1.5955487 1.3034457 -0.23210584 -0.17801236 0.45132476 -0.9619435 0.5368091 -0.87547684 0.88925123 -0.124988884 0.075407945 -0.48114124 1.8583746 2.521766 1.5685588 -2.1851523 1.8849667 -0.008545809 -4.345004 -0.037213597 0.5517285 -0.51854855 0.38337594 1.0372763 2.8195364 0.21620858 -2.4478276 -0.36302742 -0.7815362 -1.6231825 0.5004196 -1.6192987 -0.18250309
for -1.2264961 0.03270701 0.22406895 0.232584 0.48042598 -0.72991836 0.9599538 0.35176936 0.7250056 0.13258052 -1.1200377 0.33901602 -0.53537995 -1.5504837 -0.2881194 0.49967816 0.9384036 0.6434968 -0.34477472 -0.93597764 -0.009317904 -0.19284658 0.029608345 1.0569458 -0.78150564 1.2915899 0.4494432 1.24183 -1.282417 0.28573012 -0.88059103 0.49829128 1.3313248 -0.129859 -0.42382368 1.3990606 0.48576778 -0.7638909 -1.1292017 -0.054204542 1.5230141 -0.41246414 0.13849404 -0.9396622 -1.2882049 -0.31257996 -0.52881503 -0.5941404 0.11661368 0.5695091 0.9187192 0.4929818 0.48594847 1.5842527 0.49566945 0.03517696 0.14982668 0.86854976 1.372385 -0.4091896 0.52496034 -0.65530515 2.3206086 -0.12785773 -0.76613224 0.55838376 0.6011069 -1.8019487 -0.3321097 -1.0016137 -0.60613847 -0.09260274 -0.08896003 -0.92566794 -1.7057383 0.92347705 -0.5416787 1.4174868 1.3483601 -0.61461365 0.67212784 -0.31069207 -0.809084 0.021877207 -1.6807843 0.7649525 0.9244556 -1.4343152 -0.71607727 -1.5529749 0.14684853 0.7188726 -0.46624815 0.81562746 0.8035011 0.92589146 -0.4532667 1.5288572 0.6193462 0.3251408
are -0.6638899 -2.5051153 1.5859554 0.64753085 2.265763 0.83515275 1.0859107 -0.67276365 -1.0886832 -0.020773526 -1.6593144 -1.4253376 -0.47829857 -0.49246004 1.4192752 0.27328593 0.34788108 0.42318746 0.5598938 -0.9544525 -0.2372607 -1.5547479 1.0360267 0.01167518 2.3969896 -1.9134121 2.928647 0.50858563 1.7850941 0.7973753 -0.7125225 0.030432038 -0.778157 0.30285788 -0.16811898 0.847905 0.31608167 -0.054910675 1.5764188 0.39007902 -0.23920959 -2.2294211 0.8407793 -2.4808617 -0.5322586 0.7625607 0.46590325 -1.5006974 0.9995755 -1.9323354 0.14641622 -1.5023577 -1.7113734 -0.698886 -1.4972283 0.4756395 0.5051847 -0.84463876 -0.41575468 0.62316394 -0.11596985 -0.8739541 0.45262682 0.5676323 1.7512347 -1.5753739 -0.02000317 -0.44405824 0.37852302 -1.0268493 -1.4901353 -0.6455271 -0.51119065 -1.1464586 -2.7742429 -0.054439962 -0.53214085 -3.5527694 -2.478188 0.9643492 -0.349288 -0.169112 0.1994652 -0.32612154 -1.6252993 -3.413902 2.352264 0.04946227 -0.3218044 -0.91762716 -0.025756888 1.0378605 -1.9147191 -0.20023131 3.4076698 0.6476369 -0.6223956 -1.409748 -1.3099278 1.1238135
have -0.32424343 -1.1526772 1.9396069 -0.16051751 -0.20916958 -0.7330548 2.5350769 1.1982272 0.42749718 -0.3884403 -0.086360164 1.3054725 -1.6427605 -0.9099431 0.05541894 1.4191824 -0.22730553 -1.6585832 1.5820423 0.6183316 -1.2466317 -0.24956042 0.79194224 0.54664266 1.3085252 -1.7015938 0.6338194 0.16781928 -0.9680831 0.5643485 0.2762413 0.05278405 0.77800626 0.3140547 -0.87688214 1.0684564 -1.0482432 1.0611528 1.7118293 -0.33509064 0.3122763 -1.9211624 -1.4017231 0.45716357 -1.2997297 1.2433971 0.17198241 -0.23497038 -0.05931528 -0.6194924 -0.21856707 -0.40152287 -0.15089507 1.3754779 0.56901354 1.5024316 0.37944627 1.0852002 0.51675147 0.26444086 2.0407257 -1.0626333 -0.025105916 -0.44255725 0.03735115 0.86931676 -1.2773213 -0.36469185 -0.16901825 1.3853172 0.043035723 -1.7820203 -0.40640733 -0.99145347 -1.6759104 -1.3446089 0.5200108 -0.51352924 -2.9475226 -1.0652677 -0.2639496 0.5218206 -0.4019166 -1.3480107 1.3583633 -0.23791797 -0.6708222 0.28022274 -1.9746593 0.33086926 0.047471825 -1.1003917 -0.7659788 -1.0212824 0.74077266 1.2693365 -0.35748008 0.7847509 -0.9114692 0.9936453
but 0.29359043 -0.79351765 -2.0653255 -0.83504707 -0.84950095 0.5046721 0.25739616 1.2015716 0.7133216 0.51691943 0.52991873 1.4084276 1.1188524 -0.22763743 -0.87623054 0.8997015 -1.0839528 -0.9551605 -0.49599156 1.0525621 -1.3831574 0.171223 -0.048829876 -0.39207363 -0.5224736 0.44264865 -0.48803625 -0.34728667 1.6510212 0.64641017 -1.2734829 0.40610054 0.16018407 -1.7437032 -0.2617912 -0.38835737 0.57132745 -0.63424766 0.07304788 0.7856102 0.6382419 0.3570663 0.60047185 0.18951122 -0.20017284 -2.5291471 -0.4697412 -0.61732846 -1.1815292 0.6344112 0.4264005 0.27912918 0.019022029 1.0556393 -0.37619695 0.30074707 -0.82001275 1.3384466 0.12985381 0.39911506 -0.2763545 0.22791477 -1.6974864 -0.4746603 0.5300227 1.686933 1.4601887 0.39935002 -0.660669 0.5460549 0.16148806 -0.5105653 0.8360891 0.22652595 0.4275129 -0.4337014 1.4436562 -0.20338623 -0.47930813 -0.75788814 -1.0236907 -0.9927668 0.33723792 -0.37037876 -0.3794332 -0.5145806 -0.6184069 0.587389 0.86483526 -0.30721706 -0.90883243 -1.5489388 0.30435848 1.2232256 0.664081 0.69288963 -0.6003011 -0.2812826 -0.33037147 1.5286129
what -0.71417814 0.7655915 -1.330794 0.26241463 -1.333697 -0.5186777 -2.2893994 -0.90946406 0.6317343 -0.691927 1.273305 0.8222429 0.45150062 -0.13960151 0.41169325 -0.4710522 -0.7039011 1.8777798 1.2543954 -0.38607317 0.35475004 -0.39721343 -0.09789367 -1.9885377 0.029315408 -0.39550978 -1.3648248 1.0546573 0.15383863 -0.5388322 -1.689194 -1.3133852 -0.03732157 -0.69967383 -0.8897942 -0.046278365 -2.9472501 0.37472042 0.63927495 -0.08311048 -0.45334378 -0.50242764 -0.119821034 1.4952345 2.3265066 -1.800675 -1.4860941 -1.1931622 2.174003 0.87332016 -0.10078926 -1.3992627 0.7943967 0.65929353 -0.67051256 2.422754 -2.7743728 0.93829244 2.4286933 2.2584212 1.3079228 1.2018548 -1.8646439 0.35282677 -0.94448465 0.8860193 -0.58144075 1.885764 0.70987064 -0.5601141 2.0469542 1.5381746 0.075070694 1.443501 1.6435181 -0.035683706 1.4242495 0.2258492 0.4908259 -2.9093063 -1.4241954 0.08872029 3.5095675 -0.23617159 0.63889295 -0.37911606 -0.42568046 -0.6520188 -0.92531574 0.3509295 -0.9982753 -1.3576295 -0.46095514 0.8491834 1.615908 -0.96464217 0.4542268 0.16530743 1.0700884 -1.9875064
on 0.3554015 1.0946766 0.7567481 -0.59275186 0.41296718 0.5098459 0.017862711 0.15887395 -2.284886 -0.114241734 -0.36754528 -0.08017935 0.07380727 1.3631577 0.23457673 -0.78355926 0.67062324 -0.93473774 1.5613196 0.33631828 1.0274775 0.8754512 -1.8180003 2.8290854 -0.53145516 1.0847405 0.010423855 -1.3454118 0.7040914 -0.8473857 0.9027825 2.1351612 -0.06554643 1.8319169 -0.110947944 -0.76450884 0.33723387 -0.5601394 -0.19262154 -0.7602342 -0.6066074 -1.2757969 0.7252735 -1.6848848 1.1630076 0.65468943 0.52590954 -0.63999945 -0.31556213 0.036899578 -0.24724439 -0.32177237 0.46661875 1.6365879 0.23388559 0.14134288 0.50856185 -0.87002605 0.3731866 0.031605348 -0.60578775 1.1041012 1.494926 0.59324086 -1.3094189 -0.329652 0.96710736 0.67774993 0.9408005 -0.7869824 -0.5366626 0.2911274 0.0699347 -1.7203138 0.04609122 -0.28446838 0.5106031 0.08915772 0.85318774 -0.15165423 0.3241147 -0.7581542 -0.15393963 -0.39301997 0.6503768 -0.6773551 -0.8838288 0.25431728 -0.49132702 -1.9935049 -1.4389133 -1.0791273 -0.4664963 -1.1454264 0.365772 -0.1426338 -0.45004663 -0.117517516 0.010421228 0.9308541
with 0.2674341 0.04447543 1.9017041 -0.20810746 -0.061512444 -0.71668285 0.5114742 -0.90542424 1.1414047 0.41997212 -1.2097545 0.9991048 -2.0157094 0.36280265 -0.14162175 0.7972059 0.05944196 -0.1769397 0.81786627 1.2772733 0.32016036 0.13550714 -0.62222314 0.576819 0.56867766 1.2089622 1.4950643 -0.91062963 -0.47475126 0.6576292 0.97780204 0.17522009 0.31683192 0.69720083 1.3042586 0.4171093 1.093808 0.064171135 -0.6534638 -0.41041988 1.3344616 -0.5839069 1.0134071 -0.49322245 -0.21352933 -1.1961598 0.42643613 0.6797748 0.35934874 0.38647336 0.8673001 0.394634 -0.22725618 1.517285 0.09927455 0.51523 0.88785547 0.17305231 -0.345244 0.706194 -0.15331212 -0.19908309 1.3524517 1.010679 0.35300925 0.33292097 -0.11992738 0.22354202 0.8358219 -0.36828166 1.3229676 -1.1623065 0.10252051 -1.36278 0.95499015 1.7177753 -0.24834241 -0.73887694 0.3307974 0.5653771 0.90457034 -0.10108025 -0.051156227 -0.5544945 0.8764012 0.68325496 -0.14904766 -0.6958505 1.0480928 -0.490212 0.8537571 -1.127724 -1.0228146 -0.3746841 0.16342284 -0.9596617 -0.96299505 0.074201316 -0.8202726 -0.14136326
can 0.6671143 -1.9844953 0.08180421 -1.2568754 0.53390825 -1.3100474 0.053854898 0.44886118 -0.6817071 -2.2064219 -3.4745967 -0.10965381 0.63716835 1.9968426 1.5254563 -0.6703253 3.7432203 0.22588688 -1.3736869 0.9659137 -0.20578441 -2.25485 -0.8410697 -1.6926252 0.20458473 -0.3935346 -1.2999994 -0.9687759 -1.0706466 -0.31725448 0.9665335 0.8708645 -0.017464524 1.1280397 1.8702482 1.7385621 0.72080535 -0.8220566 3.3742998 -0.27875373 -0.80780053 -0.81711346 1.6577504 -2.491318 0.27200592 1.2806841 0.731278 -0.86258286 0.5603529 -0.98155874 1.6303232 -0.0066093225 -2.010466 -1.4944087 -2.0790436 0.4311439 -1.3217086 0.6284901 -1.184059 1.7085108 -1.5200554 -0.4541114 -0.3607915 -0.44502893 -0.10108712 0.55603915 -1.4026386 0.9772515 -2.6371503 0.29162765 -0.3598811 -1.1899487 1.7719612 0.20984748 -0.2593807 -0.39014387 -0.9885162 -0.74517524 -1.1999282 0.039414514 -3.3387403 -0.44244388 0.713237 -0.7510358 -0.031586956 -0.11103515 0.6421743 -2.0847034 0.8108496 1.1554085 0.53180104 0.3292733 0.1318059 1.8990393 -1.7605197 2.282114 3.905319 -0.2127692 -1.083886 0.36559916
t 0.3179937 -0.9462402 1.8884606 4.2300363 -2.7015102 1.0519323 1.7776493 3.4004261 0.44841102 1.3749692 0.8482305 -3.1211905 -1.6409087 0.52200365 1.0647485 1.6654389 -3.3725252 -0.3699713 0.44151604 0.6128408 -0.99780107 -0.18750711 3.568606 1.3429861 -2.5972342 -1.3033456 1.0843602 -0.84105545 1.6283271 -1.5565305 0.05031282 -1.2062533 1.0631919 -1.2921543 -0.9402385 -0.7735723 -0.137964 -1.6286445 2.220929 1.8568254 1.3990492 0.48281878 1.885663 1.1136518 -3.1560376 0.7471912 -0.8735792 -1.9596164 -1.109809 1.8014486 -2.6189532 -0.3382237 -0.07522207 -1.0879209 0.8754745 0.4468449 0.2484395 -0.76482755 -0.025507612 0.9218428 0.31698197 1.4960008 1.5677149 1.1989948 1.7573327 -1.1136317 -0.8530095 1.9015895 2.0537753 2.4684098 3.1987736 2.954391 -0.058503978 0.65997595 -0.96072763 -3.719472 2.0047078 1.2979743 0.42410886 -1.299909 -0.8731792 -1.1470785 1.1612843 0.051882368 -0.3873837 1.1021477 0.36620858 -2.1739588 -0.56236136 1.3482964 -0.20350225 -2.2602763 0.45036462 -1.6638148 -0.6618466 0.8121697 1.7040629 1.6684693 -1.0201702 -0.37680444
about -1.9658995 -0.625108 2.0660274 1.0982814 -1.1707121 -1.0511906 -0.54913056 0.038922593 -0.5508195 2.0587413 1.3468726 -0.0018818491 -0.88388526 0.013533054 -0.4498765 -0.8492831 -0.62374204 0.42485556 -2.1094615 -0.020303559 -1.1786637 -0.6977624 0.40017638 0.32710814 -0.80732745 1.2848886 -0.2444696 1.3964018 -0.0540961 0.92665374 -0.16482145 -0.27642632 -1.3044051 0.69188815 0.56340045 0.24611457 0.71118724 -1.4303138 3.3816354 4.7684827 -2.3857853 -0.5022459 -1.2673347 -0.76535136 0.76670414 -1.7746762 0.91344965 0.8976638 0.21642116 -1.7201563 -0.99548453 -0.015724044 0.5316582 -0.7740047 -0.87673277 0.4353158 -0.40161636 -0.5127645 0.7389245 1.4223796 0.5625521 -1.6894115 -0.35596535 0.7072316 0.49823463 -0.024356987 1.8115752 -0.12366189 0.92181706 0.8248622 -0.2973878 -0.58934116 0.12335194 -0.13734312 1.1292422 -0.21454552 -0.92914146 0.7697234 -1.4040769 0.70996255 0.85782486 -0.37204358 1.1963935 -0.9261238 -0.010245718 0.4679155 0.32864493 -0.26426294 1.2550875 -0.55887806 -0.24552491 -0.092695735 0.7684625 0.7230308 0.70569223 1.439146 -2.9465704 -0.045251977 0.6102727 0.5284311
there -0.06683943 -0.4377382 -0.77870595 0.2461141 0.1894567 -1.441588 -1.1309271 1.6948109 0.2178547 -1.4954219 -0.34642085 -2.2711556 0.23003897 0.43146256 -0.39257896 0.4383526 -2.0499372 0.36960676 0.60368836 1.2834462 0.45375043 1.262042 0.34122777 -0.5846982 -0.7535469 1.8769702 1.855584 1.428396 1.8311038 0.85416836 -1.096858 0.8574672 1.0095603 0.3711242 -0.13347441 2.1238565 1.9357452 0.79119897 -0.4162606 -1.0039158 -1.1430767 0.61576813 -0.79129463 -0.69661266 -0.5504918 0.08986105 -0.94187945 -0.60150427 1.3690425 -1.3128601 -0.33272538 1.3872994 -0.4970739 0.99505776 0.41684306 1.4445142 1.3567576 -2.3659291 -0.026264383 0.49028426 1.8665335 -0.39100537 -0.36546212 -1.584014 0.14953275 1.161752 1.4317656 1.4079087 -0.2680478 -0.32029766 -0.48675013 -0.5957886 -1.1331184 0.5759809 -0.6740084 0.19817433 1.348034 -1.3557814 -0.19168924 1.7420787 -0.8897344 1.747883 0.60561055 0.018174166 1.9789302 0.65195024 -1.6207708 2.9231157 -0.2560226 0.31403702 -2.2041652 -1.0365828 -0.13583368 1.1441102 -1.0809038 0.5137671 0.6355458 1.540527 1.5973845 0.8839894
be -0.6592215 0.80626184 -1.650495 0.7750699 1.4871148 1.213626 2.7574642 -1.0862378 -1.4898564 0.7797543 1.5430931 2.0288687 -1.0163589 -0.374778 -2.431854 2.3212807 -0.4196789 -0.11298821 0.596794 1.1397947 0.6465732 1.7238122 0.69015884 0.4388017 1.4512662 -1.3705996 1.1382188 -0.59651107 0.4850165 -0.6981712 -0.70230645 -0.26578352 0.7629409 -1.1101581 -2.690676 -2.6328685 -1.7243121 1.5564146 1.2201878 -0.18647482 -0.8085199 -2.9703548 -1.93905 2.301821 -1.5468897 0.388896 -3.2756603 0.1586975 0.29306537 -0.3454039 -1.3173859 0.8712561 1.5287477 1.7809905 -0.91675323 1.0532324 1.8050978 2.2735157 0.5296755 -1.8266693 -0.13911606 -2.214518 -1.8898147 0.49955687 3.189738 0.22009906 -0.020305999 -0.45295 2.4055429 -0.94859564 -0.57444954 -0.22385101 -0.40683812 -0.1759185 -1.5920987 -2.030789 1.519233 -0.96258086 -0.78999454 -0.41971034 0.044145174 -0.19071807 -0.97683287 0.3753117 -0.44566253 -0.1322603 -1.6189677 0.1015222 0.29203656 -0.9605523 -0.17828585 1.3293278 -1.0983236 0.24681512 2.3119352 -2.1583524 -2.5261214 0.17894101 2.041112 0.7678046
as 0.6217951 -1.0993115 0.40891773 0.85397017 0.2691808 0.43069848 0.13198484 -1.3604789 -0.9191874 0.12498717 1.3007947 1.0998776 0.5858443 1.8972032 -0.48113132 0.97765714 -1.3095053 -0.25971323 -0.7868205 -0.679212 1.3688804 0.77918106 -0.22931404 -1.2265427 0.49686515 -1.1153315 -0.5113416 1.0745976 1.562421 0.062156502 0.2001058 1.0661752 1.8212204 -0.087759815 -0.0045815245 0.62310725 0.29686245 0.8435302 -2.0659666 0.16487497 0.12810051 -0.0021059539 -0.42672276 -1.6608773 0.9326231 -1.3524084 -0.15677449 0.8258166 -0.18474986 0.41039422 -1.033763 -1.7351484 -0.078363076 1.5360656 0.76863563 0.53801596 -1.8150905 1.3209934 0.04986622 0.5270467 -0.65535015 -1.8831508 0.7555904 -0.35433775 1.9500835 0.94334316 -1.7001851 -0.10834293 -1.3880186 1.2862922 0.9486497 -0.15262349 0.8997222 -1.0833647 0.96058404 -0.65943015 -0.84581053 0.27624932 -0.5150054 0.9605282 1.1205907 -1.8417019 -0.079193644 0.35226592 -0.8966449 2.0914924 1.0372642 -0.8117803 -0.24056065 -1.0181916 0.5737252 0.95868176 0.6705492 0.96813166 -1.2509849 -0.002541753 0.5964708 2.2478793 -0.7492288 -0.47170144
not -0.8145584 -0.5808543 0.28529966 -0.24694729 0.3176261 -0.99353373 0.38564962 -1.1294675 -0.46511763 0.5216842 0.5530006 -1.2640022 -0.1520777 0.64663583 -0.8015534 -0.26290265 -0.86265427 0.5093718 0.808834 -0.90369004 -0.22463763 0.844802 2.3012507 -0.9159505 -0.56996095 0.6598073 -0.0065282853 -0.5272322 3.0598917 0.083481036 -0.7020613 0.050208516 1.1079042 0.4980019 1.3455833 -0.54923505 0.5697249 0.6634612 0.07241699 0.7649726 -0.22648378 -1.1851267 0.461866 1.2575941 -1.0069112 -0.59858006 0.25201142 -1.1860496 -0.52118665 1.5317192 -0.76814926 0.07066261 2.117044 1.7968829 -0.4204415 1.779496 0.56445056 -0.10626724 2.2009988 0.743138 -0.5284951 -0.49074203 -1.4242067 -2.5022275 1.6940912 -0.5178751 -1.4189357 0.6748142 0.97032094 -0.61662525 0.3601251 0.09989925 0.35248256 0.534273 -1.4484149 0.47580898 -1.6094909 -0.44692937 0.3005393 0.09594449 -1.8597087 0.29959437 -0.4239778 -1.768478 -0.10399742 1.1922549 -1.0248297 -1.6675752 -0.14384328 0.45570436 -0.71313006 0.59681153 -0.337111 1.4730362 0.6272829 -0.21973063 0.4856919 -0.226443 0.9971145 -0.640291
at -0.8501437 -0.864943 0.77414227 -1.9993894 1.4730284 -0.7687766 1.0521995 -0.052499577 0.4277415 -0.32472014 -0.23418985 -0.84726393 0.9025474 0.14046063 1.5027509 -1.0202717 -0.10175312 -0.7849538 -3.6447623 -1.3321518 0.99848354 -0.57075197 -2.5932472 1.8400744 -1.4546131 2.0455992 2.2532766 -0.2693473 -1.5451577 -2.9616976 -3.1140049 -0.9577487 -0.45910498 0.35612413 -1.2681464 -1.4340154 -0.8454121 -0.34944215 -1.5986799 1.0190135 1.4496328 -0.15792987 -0.590265 0.06325457 0.69675183 -0.58435327 0.5945686 -1.7501131 -0.48231304 0.15616405 -0.1612839 -0.06661014 -1.0212492 1.9462014 1.0245293 -1.7337102 1.7402072 0.07079766 2.1293118 -0.6288917 -1.0863074 -1.09025 1.6237622 -2.3172128 -1.653826 -0.20247506 0.52266985 0.8481656 -0.7446795 -1.9641576 1.3580239 0.060459267 0.10138667 -0.88069135 0.69530576 -1.267116 0.80270165 0.24005052 -0.14910391 -1.0590354 1.9774742 0.30561087 -0.4133596 -0.38937315 0.027544463 2.3410501 -0.1039586 1.4075087 -0.73517287 -2.9421635 0.20112666 -2.1704504 0.30367345 -0.32065088 2.2281587 1.0316027 1.8949038 -1.0890886 -0.47222546 0.71226186
all 0.57589024 -0.7484495 -0.37988445 -1.0109247 0.1576202 0.7973229 0.60785407 -0.3445676 0.84291047 0.37767437 -0.276909 0.027641078 -0.3112671 1.1161257 0.036055602 0.5570162 -0.8129892 -0.5377135 1.5961316 -0.22721018 -0.85693896 0.21109067 -0.07915666 0.29171705 0.34915602 0.15373158 0.66357005 0.90863484 -0.40502286 0.41568843 -0.3207143 -0.27226588 -1.1295089 1.3679758 -0.5151006 1.5535975 0.3283113 -0.43798476 0.48807216 -0.41736946 -0.12659903 1.0292395 0.66415155 1.6849618 0.90131146 0.5488535 0.29660663 -0.58980066 1.1486727 -0.16275448 0.8717276 -2.252575 1.6252327 -0.7075534 -0.48191988 -0.48989734 0.20513569 -0.61217624 -0.34369856 0.76883525 0.8586901 -0.21621762 -0.37693036 -1.1036754 0.09640706 -0.48778293 -1.1970478 0.9013042 0.05969522 -0.14061302 -0.20209119 0.94098026 1.6077431 0.63515323 0.87596405 -0.6075978 -0.21550837 0.23808834 0.5286671 -0.78413457 -0.11446911 -0.3183129 0.72853625 0.09472837 -0.38551456 -0.6506398 1.5424188 0.26283965 0.061842944 -0.33521006 0.23475775 -0.8679554 -1.3136092 1.3674389 0.50481534 -2.1172214 -0.48328003 0.3753009 0.016716072 -0.42548272
do -1.0993514 1.0899693 -0.20415655 -0.1846413 0.1085517 -1.5022138 3.3232985 0.1329852 -1.4294173 0.89672434 1.4321325 1.0710087 -1.2265766 -0.13682671 -0.009391101 1.4609988 0.49526635 0.0506044 -0.6146901 0.77595305 -1.2001319 -0.78871703 1.8965496 0.3419852 0.8851849 -1.3649566 -0.7063394 -0.7963866 0.42146593 1.6050076 0.40182137 -0.110787794 -0.12230291 -0.18082082 -1.432032 -0.40016523 -0.8778386 -0.0042335656 2.2764516 1.6191726 -1.3663545 -1.6146448 1.8463688 1.4202454 -0.85709566 0.19414216 -0.72058094 -3.1294422 -0.97484857 -0.5340888 0.24553664 -0.13088176 0.12047962 0.3674067 -2.6185074 0.8216269 -0.59190965 -0.6145935 -1.5177115 0.15320092 -0.29569748 -1.5731001 0.1408093 0.31495947 0.3816099 0.3930794 1.0221344 -0.10140955 0.28418395 -1.3825227 0.55976814 -0.59657395 -0.035029825 -1.7452596 2.3034065 -2.711714 -1.4549348 -0.14596653 -0.87043536 -0.6496844 -1.2287614 -1.3282385 1.1818902 -0.6667592 0.7058973 0.30239853 -0.708672 -0.71799463 0.552644 -0.16311665 0.73611045 -0.23026232 -0.5950504 1.01626 0.44188926 -0.32794937 -0.4915887 -0.6337753 0.94516295 1.0529352
my -0.7995799 2.0305436 -1.0197926 0.44724998 -1.3062724 -0.55941725 0.032699212 -1.423192 1.6142582 1.8841972 3.2421274 2.2243984 -0.18543199 -0.5501521 -1.1208502 0.84181505 -0.13835588 0.5978639 -1.4982574 -1.4005054 1.2710351 0.19290885 -1.7138594 -0.5634084 0.49194938 -1.5839481 0.038235024 -0.70187795 -0.5725662 -0.89727366 0.039684303 0.06434822 1.0251628 0.75859463 -1.0775044 0.6067223 1.0874878 0.24290654 -1.4438155 -1.485746 -0.77722794 2.2107992 1.4377024 0.72553486 -1.237376 1.0163143 1.5290092 1.3561692 -1.1506735 0.5968655 -1.1799926 -0.49066192 -0.28039715 0.05747773 1.1730584 -0.86824554 2.7643743 -0.40832734 0.3236495 1.8921278 -0.7375233 1.0184433 -0.3736535 1.1336069 -2.042866 -0.3813755 0.44760048 0.68470716 -0.20037532 -0.4769956 0.4936975 0.40724623 1.2239144 2.595903 0.45850462 0.621983 -0.7136861 1.2822933 1.6695974 -0.67906547 0.9095445 1.9951092 -0.9044234 0.54691875 0.10536897 -1.7581092 -1.3823802 1.9755682 -1.0028995 1.7556328 0.69092184 -0.768821 0.7640217 -1.2552862 -2.680684 0.06339849 -1.4806027 -1.9078866 -1.6657614 -0.7540179
one 1.6246184 -1.0630875 -0.4751276 -2.2463908 0.5705993 -0.25817627 1.4282564 0.5711994 -0.10565015 -0.06640589 0.563256 0.7717998 -1.6551752 -0.27553037 -0.7369513 0.13505715 1.1849817 -0.42198056 0.20730396 0.13186017 0.7383144 0.4132375 -0.42213777 0.6454957 -0.9247105 0.45303148 0.18039536 2.2982938 2.2189317 -0.18453187 0.60489 -1.0800278 -0.14383727 -0.053888176 -1.4917845 0.9298134 1.1697251 -0.26489106 0.4570131 -0.59570503 -1.2381 -0.23156197 0.9873932 0.48958653 -0.16734385 0.40093932 0.69749975 -0.5253464 -0.26346672 0.24177198 1.3489652 -0.3791981 1.0934975 -1.047462 0.084776804 -1.6433394 0.3500228 -1.0802058 1.8787479 -0.3275287 0.77204686 -0.050245777 -0.8445071 0.5904957 -0.08135057 0.7699869 -0.13594016 1.0966418 0.36426806 1.0882424 -0.44139636 0.474873 -0.7298564 0.37415326 0.67865473 1.6373872 -0.50481075 -0.7138647 1.6372441 0.5081793 -0.02673676 0.9318659 0.34704518 0.57116103 -0.20200011 1.0152881 0.63995147 2.1499946 1.1014185 0.07056181 -0.7470383 0.47555354 -0.22618406 -1.5053011 0.9791667 1.0245459 -0.673923 -0.04098199 1.573952 0.38720986
re -1.6448778 0.13802828 2.0843623 0.5184006 2.6247087 0.77417296 -0.54685885 -1.0779517 0.20679668 0.6184267 -0.97496027 -1.3438387 1.3171192 -1.4135841 3.2678723 0.18954304 0.6257456 0.070573695 -1.2253376 -0.27659783 -0.17080425 0.25993496 2.2730603 -0.8131119 2.2782385 -3.288869 1.1882076 -3.1916862 0.97561705 0.8118443 -0.20514852 0.9692419 -1.4593514 0.53449 0.5487381 0.255565 -1.2252164 -0.66421574 1.9624444 2.2626984 -1.628818 -1.6781101 2.5715241 0.28655723 1.40671 0.14296016 -0.25600898 -2.7728078 1.6203891 -1.0235006 0.35782653 -0.751113 -2.2295895 -1.9941882 -3.578308 0.8566958 -0.05414274 -0.6207841 1.800513 1.2207881 -1.1322635 -2.71407 -1.4197679 1.3818092 0.026757043 0.66853696 -0.38065922 1.1906933 0.07221664 0.066868976 0.4359204 -0.8801263 -0.8909491 -1.955307 -2.0558543 -0.6944846 0.40373456 -3.6436932 -2.9288478 -1.5155431 -1.4341829 -0.9197926 -0.64766306 0.61311305 -0.6676883 -2.0615532 2.3978615 -2.3856125 -1.8677231 -1.2974482 -0.9568544 2.1130216 -1.7333616 -1.062005 2.4202814 -0.24034935 1.2116866 -0.47598872 -0.81509477 2.023296
people 0.5608144 -1.5855616 0.9530367 -0.27024412 0.3670888 0.08908387 -0.6163616 0.98842084 -0.12393486 1.2482666 0.07137346 -1.3395935 -0.63974077 -0.82807606 -0.72872955 0.9035511 -1.3617022 0.5852749 0.83704567 -0.4240015 1.2400072 -1.6594808 -0.58380723 -0.7724722 0.6867716 -0.25382945 1.0663073 1.7938509 0.10839851 -0.3804369 2.3863628 -2.0689223 0.13511084 -0.78885615 -0.7369726 -0.46545872 0.79913294 -0.61913246 0.57004786 0.43110743 -2.1714194 1.3114184 -1.0284157 -0.9018858 0.60000414 0.10662832 1.8634996 -2.052658 0.34227094 -1.0796305 -1.6857812 0.8634888 -0.3173015 0.5017804 -1.7974844 2.7814832 -0.668926 -0.39925978 -1.1021981 1.4221281 0.037416857 -0.24838705 1.5087776 -0.15579943 0.09369599 0.18388079 0.19975477 -2.0583801 0.26990506 -0.38387418 -1.0310509 0.114156626 -0.08196181 1.6956453 -1.3522571 -0.9501827 0.7802709 -1.5668383 1.5614204 0.22411355 -0.6712923 0.6090882 2.1207702 -1.4186022 -1.0012091 -0.06909673 -0.3421865 1.876037 0.72621566 0.36446232 0.2378287 -0.82046986 -0.71758634 0.75117767 0.26048797 -1.7684171 -0.52340615 -0.6279358 -0.6175561 1.4107344
like 0.6094317 -0.98417956 0.8185814 0.035103604 -0.18668175 -1.7326772 -0.3136216 1.0476112 -0.5837169 -0.88489354 1.3088661 -0.08260793 -0.55781204 1.1549587 0.23256363 1.9533963 -0.26788822 -0.4436565 -1.9112937 -0.459979 0.42935714 0.13521452 -0.3969242 1.4142249 -0.4099752 -0.16246416 0.50131047 1.0013638 -1.3188715 -1.1481963 0.016828973 0.2015609 0.036971096 -0.9381386 0.45145303 1.0113693 0.12814042 -0.08989176 -1.1681074 1.4151224 -0.6170882 -1.7745113 0.90139014 1.2578871 1.5519371 -1.6101253 -0.48724428 -2.1758087 -0.45326817 1.5204546 -0.57268924 0.39874008 1.1449214 0.2350369 1.2737769 -1.3163476 0.8017663 0.619137 -1.08392 0.83534265 -0.19171439 -2.0569713 0.24185422 -0.5395745 -0.05788567 -0.75252455 0.3906951 -0.69332665 1.0929197 -0.6974946 1.3410681 -1.602592 0.47112295 -1.2404609 0.60986835 -0.052383337 -0.5599389 -0.43727013 -0.668629 0.11838849 -0.6603293 0.45931816 1.2212164 -1.6320018 0.19287199 -0.24016973 -1.1105313 -0.14666021 -1.2755644 1.525223 -1.0957733 -0.83552307 -0.69970787 0.82679963 -0.08983651 0.66083896 0.15181819 -0.02252207 0.016044978 0.60789245
if 1.2359959 1.1578281 -0.12755017 -1.6635503 -1.9671395 -0.6069166 -0.2904165 1.5582126 -0.39112303 -0.36553138 0.057617754 1.2229128 0.64037526 0.30117604 0.1046888 1.8889079 0.88618845 0.91459763 1.2038956 1.1999036 -0.6848735 1.0110528 1.2060275 -1.2492683 -1.2048382 0.9661894 -0.6025281 -0.5196649 -0.3688281 -1.555293 0.028827665 0.6331441 0.79888946 -0.23486185 -1.2637212 -1.032311 -0.6197301 -1.4916338 0.40509558 0.9632527 -1.5620863 -2.2365654 0.5039406 1.2398232 0.056026153 -0.6460001 -0.6843328 -0.90856034 -0.35309154 1.6549032 -2.0878313 0.93596405 1.2689478 0.28055468 -0.050016757 1.446138 0.44950634 0.6081716 0.2574007 0.03729562 0.24869077 -0.32636163 -0.03166581 -0.70767707 -0.23188865 1.9733813 -0.3515433 0.59688896 0.0637671 0.09968177 2.4166079 1.3818605 2.4990077 -0.4390166 1.315834 -1.3151752 -0.34670773 -0.69808275 -1.2523973 -0.757613 -2.206018 -1.1041894 1.3819065 0.6126883 -0.9310686 2.4320068 0.22960578 -1.1389682 -1.1838739 -1.8380178 -0.08262403 -1.1683443 -0.100091904 1.6070861 -0.6884091 -0.31986788 0.9820493 -0.9069958 -0.54984343 0.7145131
from -0.14126554 -0.6934955 1.0835795 0.3643587 0.81627595 0.3050578 -1.5543209 0.042041257 -0.8152444 1.3452547 0.20497963 0.9565553 0.76805335 -0.25752914 -0.7486176 0.11186824 -0.17434394 -2.101023 -0.06382595 -0.4638189 -0.40489793 0.09448733 -0.6800743 -0.1666486 -1.1612103 1.053605 1.475013 -0.77504104 -1.7429072 0.09161865 0.63562727 0.016243797 0.37022924 1.0045123 0.29823264 -0.27316955 1.5462942 0.82781774 -0.7210339 -0.6984679 0.42156142 0.3734662 -1.3881471 -1.050503 0.87066644 -0.034239836 1.0002984 1.9553777 -0.22067192 0.16007955 0.38732138 0.4571884 -1.1066139 0.012646752 0.1715512 -0.41930225 1.09243 -0.8466388 -1.2248913 0.5113731 -0.4342675 0.9187353 1.1611398 -0.7746752 0.3623796 -0.5399403 -1.5277214 0.43763623 0.6841146 -1.7387445 -0.7922043 -1.369915 -0.16169491 -1.6817126 0.5303035 -0.07009807 -0.1261702 -1.0481803 0.11877259 0.06942269 0.9330894 -1.33419 0.71463805 1.5263642 0.71956086 -0.5491076 0.9322653 -0.5945148 1.1561699 -1.2769645 1.5746294 -0.76487595 -0.7252312 -0.4311395 1.2736723 0.81740636 -0.9419037 0.7658436 0.21958485 -1.4778327
now -0.27323347 -0.7186131 0.4188952 0.74409276 -0.05284718 0.743354 -1.0291551 -0.837623 0.4733456 -0.06259111 -0.42796996 -0.5720167 0.5897656 0.5169719 -0.0067680464 -0.53978133 0.46983603 0.09860826 -0.2194664 -0.29637212 -0.4768879 0.56996876 0.05011188 -0.1589991 1.4671446 0.5448012 -0.5071341 0.23481208 0.13101585 0.5424434 -0.9422626 -1.0700061 0.10113389 0.061139304 0.21107833 0.028152775 -0.7907125 -1.697141 0.49935848 0.12539458 -0.46596318 0.7108958 -0.57820857 0.99213773 0.20330879 -0.27419665 -1.5143014 -1.3980253 -0.22445466 0.14873302 0.09982126 -0.41211402 0.34675294 1.4068605 -0.9206878 1.0709133 -0.14442195 -1.6729882 -0.717369 1.0056688 0.053555727 0.010760703 -0.062331192 -0.43996173 -0.07808432 0.21296662 0.4010277 0.6383343 -0.57845944 0.21155706 0.5803462 0.96480423 0.17351745 0.29194564 0.6762422 -1.090292 -0.65029544 0.61424124 -1.0381473 -2.1217763 -1.8401871 -0.09009406 -0.3692331 0.12851505 -0.11729667 1.0004277 -0.23938182 0.3334988 0.20810483 -0.85072666 -2.0650876 -1.1571482 -0.4314537 -0.48087543 0.45067543 0.5411672 -1.6865381 -0.8740472 1.1924068 -0.4205892
our -1.4529617 1.0476723 -0.6294812 1.1779575 1.0798863 1.2148156 1.9444586 -0.44949716 1.4037607 -0.30100238 -0.5127943 0.16371943 0.7561948 1.0569202 -1.547858 1.2442719 -0.7951238 -0.28955045 0.86308587 -1.8932494 -0.1535562 -1.1209974 -0.52420264 0.8554337 1.7868974 -1.4687967 0.90427345 -0.5220951 -0.58608425 1.6173499 0.46660587 2.3504095 -2.3498423 -1.2040806 1.4790869 0.17070034 0.059267778 -0.4667357 0.2632596 -0.75041145 -0.5182295 1.2016076 0.16078621 -0.10786257 0.5543485 -0.7440336 0.9654476 2.4303203 0.8809785 -1.863646 1.1995964 -0.35215396 1.2274388 0.18920277 -0.5537273 -0.8777335 -1.3257871 0.17057519 -0.11507133 0.68896973 0.10674313 -0.049810413 0.65574116 0.21484585 -0.69291216 -0.15991065 -2.1756725 0.16686548 -0.62724 -0.40441653 -2.077946 1.761346 0.7550008 1.5245903 0.70138747 -0.9074607 -1.1015863 -2.3286784 1.0236762 -0.10426379 -0.6375048 0.15902625 -0.4859746 -1.9016395 0.27366295 1.7122546 -0.88188803 -0.30526492 -0.3995623 0.17376105 0.99742866 0.25378883 0.25532824 0.1591899 2.2041776 0.12634914 0.5756861 -0.13569494 0.0080320425 -1.2800077
he -0.35225856 0.78163 -1.8736804 0.11986108 -2.5563257 0.44333634 -1.0693127 -0.69123024 -1.4858813 -0.12227957 0.07615996 1.749309 -1.6378989 -2.11279 -0.5697986 -1.8171617 -1.3379406 -1.3905885 0.15037552 -0.48208094 2.4086356 0.14621568 -1.9228356 -0.42826518 -0.03092165 1.9347626 -0.8494847 -0.41097024 1.1226293 0.014543214 0.19456725 -1.3476114 1.1150765 -0.11712213 -1.1128584 -2.4833355 2.1136422 1.0534514 -2.8444233 0.28686202 0.040240757 2.596912 0.48102385 2.1926928 0.019920101 0.29562116 -1.7045823 0.23754948 0.3201675 0.19822599 -0.9884897 0.76029193 1.5252934 -0.8782783 -0.2104551 -1.0954465 1.3770568 1.3488166 0.81660974 -0.13307376 2.1714196 -0.9531889 -1.3971943 -0.09265085 -1.7182757 -0.71856385 2.5356774 0.13909745 1.6832571 0.40581414 0.7354687 0.62890875 -0.8192841 1.950633 0.034714125 -2.273029 -0.34841415 1.4427855 1.1849937 0.93469274 0.52646273 -0.22997281 1.8656598 -0.12763606 1.2670865 0.14269365 -0.5721224 1.3428254 -0.5997004 1.5184503 0.25237796 2.6986308 0.55536526 -2.4772556 -0.4986059 -1.1914082 -0.2030378 0.8818868 0.12863125 0.4456141
an 0.56595725 -0.6085592 -1.2612699 2.3420548 1.3473041 -0.5776972 -0.2571741 -1.0305442 0.17635925 0.19160087 0.17483403 -0.14649265 1.0408573 -1.7235214 -0.1753034 -2.0170147 2.4662619 -0.32969218 0.25639915 -1.0085882 1.5065153 0.66271394 0.23615478 -1.2380311 0.07280675 -0.12483806 -2.7095227 -0.039595243 -0.836266 0.1133056 0.9864964 -0.15085898 -0.22706658 -1.0800536 -0.8457976 -0.40082458 0.07692092 -0.96912265 0.117666684 -1.6059735 -0.14353497 -0.5489883 -0.07801646 0.89699405 -0.4861771 -1.4329664 0.47039047 1.0206553 0.29518268 0.17810799 -1.3764659 1.645253 -0.7585214 -0.5819874 0.0557778 -0.77859396 -1.6977222 -0.4395003 0.003377638 -1.790584 0.12985668 0.7448704 -1.1901673 -1.2756959 -0.43636662 0.37909776 -0.66133934 -0.7903324 0.76118046 1.9872333 1.0075877 -0.13423327 0.55405253 0.94504243 -0.53774065 1.1820275 -0.47685462 -1.0858781 1.6248007 0.17716832 0.41599312 0.17267548 -0.87707156 -0.35020235 -0.35765305 0.45354873 -0.94483465 -0.16305709 -2.0097773 -0.74450624 1.4868094 -0.7825052 0.50149435 -0.682188 -1.2069677 -0.8523857 -0.98996824 0.4983824 1.1260749 -0.10002044
just -0.5095349 -0.008321627 -0.5122579 0.20634162 -0.6561578 0.8306386 -0.41550514 -0.22804143 -0.024312666 -0.26371476 -0.3680391 0.57349837 0.20958573 -0.24908863 -0.03176995 0.966767 0.15473042 -0.4163391 0.37517002 0.34916764 -0.26000512 0.7709832 -0.3163663 -1.2872752 -0.27966937 -0.50119716 0.3498216 -0.53095585 -0.69022995 0.20405917 0.5471807 -0.15055828 0.32660523 -0.640941 -0.4112135 -0.79042166 -0.2627113 -1.3317944 -0.16410504 0.69133854 -0.07785727 -0.041163374 0.024757333 0.15236424 0.3739285 -0.40790555 0.37333402 -0.79173726 0.07479237 0.68638194 0.48138475 0.001166839 0.4393587 -1.5563148 0.07239995 0.2568756 -0.0025710256 -0.39815947 -0.49938536 0.14003426 -0.2853433 0.4729841 -0.66846883 -0.57378376 -0.25679955 0.61686736 0.1382307 -0.7212702 0.09278595 0.07278322 1.974422 0.846086 0.38233536 -0.7791189 1.3058733 -0.5397552 0.6434371 0.8185419 0.1174186 -0.28258044 -0.8538671 1.5125487 0.5507693 0.3332054 -0.09705946 -1.1476607 -0.8600177 0.02125554 0.5818903 -0.48942736 -2.1187172 1.0107597 0.7202448 0.77322525 -0.16205373 0.025288595 -0.15113863 0.17205629 0.6017502 0.53679717
these -0.18411484 -0.52395886 0.4434997 0.16027722 1.3928537 -1.8084021 0.9695925 -1.0712911 0.29705045 -0.021656584 -1.7331645 -1.624874 -0.24711306 1.2276669 0.6931473 0.49835655 -0.9404036 -0.34488657 1.3056536 -0.97281456 0.26615566 -0.55569386 -0.08053952 -0.90046716 0.083581254 -1.2755256 2.90886 1.3653057 0.3299142 0.16520873 -0.22335753 -0.6000139 -0.78975433 -1.5371544 -1.2908609 -0.48747513 1.4935831 0.82472163 -0.49577695 -1.4392477 -1.1262153 -0.44715136 0.81059927 1.0252535 1.2625498 -1.091966 0.31388712 0.8545335 1.1972454 -1.4437473 0.31354955 -0.82516783 1.1806196 0.31252256 0.30060542 -0.47243094 0.13754526 -0.5313335 -1.3284595 0.73632854 1.2355372 -0.56924695 1.7045674 0.8979498 -0.160958 -0.579135 -0.7161947 0.2868779 0.6554296 0.45466703 -0.47342673 -0.8953931 -1.1643587 -0.40946248 0.31594238 -0.04326173 1.0764477 -0.13011093 -0.2242395 -0.52953476 -1.6411605 0.56908983 1.2934164 -1.3808633 -0.7885128 -2.0728843 1.2090267 1.0604484 1.4074758 -1.719211 0.67010796 -0.72030044 0.34998056 2.6452034 -1.457019 0.6557954 0.06605176 -2.3962455 0.39644814 0.26340175
or 0.08694013 -0.5140698 1.2638967 -0.75653136 0.38782474 0.04052752 -0.45225996 0.4247488 -0.71307766 0.61269253 -0.46236044 -1.0969296 0.48509791 -0.60519755 -0.66572315 1.6479361 0.15772676 0.9622835 -0.41690207 -0.04810291 0.6119959 1.2191585 0.34547496 0.9392153 -0.38806614 -0.3076402 1.8456787 -1.0394174 -0.6617381 -0.46404833 2.1037135 1.7260163 0.14514473 0.8605209 -0.46224293 -0.16719925 0.91806406 0.37677366 0.790928 -0.01736955 -1.029998 -2.423377 0.1666559 1.2768937 -0.2848112 -1.1606826 1.0650561 -0.08422163 0.27329668 0.31284514 0.09355563 1.1483101 -1.1900214 0.49078217 -1.1338013 0.4481279 0.37425688 0.14156054 0.6835694 -1.2764969 0.11887708 0.61559206 0.6410276 -0.8748579 1.4384432 0.28528798 1.2323891 -1.2444627 0.15150592 1.7122496 0.04236078 -0.3253743 -0.3963788 1.6671745 0.5021918 1.0399121 -0.91581583 -0.6220194 -0.9151455 -0.064423084 -0.24711587 0.8397033 0.5146454 0.18290077 -0.62264365 0.9330051 -1.4789634 -1.9074357 1.3464938 0.06930739 -0.7971709 0.0011919176 1.9878008 1.1076444 0.059268627 0.8316564 2.2663789 1.564149 0.5384405 1.0071279
when 0.6154969 1.1783999 0.7071097 -1.6882126 -2.66215 -0.41505635 -2.0534124 -0.3077495 0.9264923 -0.5650325 -0.60031503 0.6862639 -0.9999182 0.14492396 -0.022439191 0.42678612 -1.6339227 0.6194757 -0.31506363 0.5812907 -0.42065609 -0.14145009 0.064474165 -0.06217784 -1.6657236 1.4460654 -0.61778694 0.2957907 -0.8262435 -0.9100673 -0.940604 0.5252566 -0.48076534 0.47911033 0.037497666 -0.7884777 -0.38407132 0.20953745 0.7887113 0.38034222 -0.26501265 0.9465918 0.19350041 1.4457277 1.2549026 -1.7029388 -0.030637408 -1.264744 0.28507146 1.9405816 -1.7217704 -0.3248968 0.54234785 -1.8600157 -0.32012653 0.47847617 0.32091054 0.12315747 1.0789398 0.76693356 -0.4061175 0.21164805 0.34201428 0.66996074 -1.8265272 1.847582 -0.13466536 -0.15300646 -0.043508302 -1.4764175 1.2744434 -0.6733899 2.2948086 -0.34891614 1.3723056 1.6791977 -0.08721447 -0.65026826 -1.4248945 -1.1127824 -1.0466877 -2.9340334 0.3859072 0.94285595 0.94598925 0.28438726 0.9283561 0.712559 -0.14931601 -1.6633413 1.2224737 -0.9164983 1.4379947 0.3499003 -0.84796745 -0.435707 0.21713273 -0.42183074 -1.8933904 -1.038336
because -0.14655457 -0.04950887 -0.62590986 -0.083145075 -1.0570463 0.164976 -0.383515 0.09555649 0.78729516 0.6226665 0.24403863 2.0413218 0.43163058 0.9105645 -0.30152428 0.44223768 -0.9169929 -0.13731843 0.37677276 1.0899131 -1.1486125 0.4177801 0.82714033 -0.8171871 -1.3287716 0.82830685 0.46657678 0.3852628 1.6764579 0.5509422 -1.0219493 0.3105346 -0.04471209 -0.9474568 -0.7110282 0.62868035 -0.33972055 -0.40183637 0.44355324 0.53686374 1.5416198 0.86788815 0.017815633 0.5198924 -0.32511172 -2.0177143 -0.37380338 -1.5884639 -0.4492264 0.7351107 0.48720688 0.40358105 0.5330512 0.72365856 -0.24149513 0.2803039 -0.9486692 0.46483818 0.25286207 0.07358111 0.60883236 1.088767 -0.5512288 -0.6470796 0.2427679 1.1401908 0.27986294 0.58227295 0.39791015 -0.3568153 1.0119847 0.46163073 0.26340857 0.51974964 -0.23942976 -0.1661003 0.8385622 0.40711036 0.005393399 0.054357693 -0.31804878 -0.78923064 0.15818405 -0.21881345 0.093065895 0.31351796 0.2484503 0.26881364 -0.038079645 -0.6949178 -0.48010108 -0.7421125 0.16865578 1.3604163 0.3853214 -0.07124786 -0.33522406 -0.4076502 0.24824372 0.7662124
very 0.19528304 0.9088559 0.40168428 0.7219023 0.9044707 -0.86815155 -1.0369055 -1.2646587 1.2613797 -0.9718362 -0.024757 0.4858102 -1.4014113 2.299964 0.39345214 -0.044081647 -1.0877701 -2.5182455 0.33575597 1.048757 -1.3908588 0.31211 -0.3821136 -0.4304309 0.11215554 -0.6397177 -0.7333243 0.64349633 1.743855 0.70991427 -3.6538246 0.43093705 1.024512 -0.16219841 0.34571987 -0.048466627 0.7387152 -1.4071978 -0.575125 0.20403309 0.059891295 1.3109138 -1.938306 0.74512637 -0.33587635 -0.5802372 0.54625565 -0.5916371 -1.8345658 -0.87302464 -1.2480873 -0.043199662 -1.5927582 1.112687 0.3021974 -1.0912759 -1.06049 0.21094404 -1.4147795 -0.06582192 0.11190697 -0.8916126 -0.32540894 0.3528387 1.2458041 1.4535966 -1.9253961 -1.1831558 0.65847903 -0.38754854 0.8680277 -0.13907988 -1.8169591 -1.2456478 -1.3769715 1.8943859 0.11002075 0.16677831 1.3358188 0.12718138 -0.054053053 -0.5817271 0.7558697 -0.013422348 -0.65268165 -0.014423351 0.35034007 0.8354194 0.05699472 -0.6591702 0.03472609 1.415768 0.042386163 0.622829 0.16842166 -0.92986387 1.598435 0.4824319 0.21216948 -0.15608238
me -0.72822285 1.1049261 0.57713443 0.2846587 -0.2891046 0.06429213 -1.3784723 0.0902715 -0.64371043 0.3686606 2.3361611 0.5644027 -1.4359179 -1.7387639 -1.2502296 -1.552128 1.2354336 -0.2775657 -1.0768573 0.7886492 -0.35871947 -0.5699812 -0.65693796 -2.6642468 0.17220595 -1.3032161 0.5072176 -1.5192943 0.49246135 -1.1025059 -0.4298297 -1.9602271 0.70965695 0.27415213 0.26713723 -0.8579131 0.46202 1.4068253 -0.13004822 -0.007196999 -0.68976533 0.26370046 0.056064434 1.8621058 0.2791456 0.6863849 0.6707695 -2.2722938 -1.5520362 1.2453039 -1.3600432 0.3306101 1.5589937 -2.0796525 0.5283911 0.15843773 -0.029596506 -0.005868637 0.050392307 0.012497658 1.0203686 -0.69043154 0.07927736 1.4094553 -1.4197074 0.03905401 1.7043172 -0.6959136 0.14137796 1.3814465 1.9234171 0.26153037 0.1050434 0.15741012 1.1418716 -1.0152402 0.0060555865 1.2987753 1.4152708 -0.2658541 -1.6439298 0.52554464 1.0444016 -0.18795525 -1.3295102 -2.1648395 -1.5870179 2.8228729 0.6228751 1.3426998 0.673135 0.27806678 1.0956241 0.013723935 -0.6072421 -1.2590598 -0.505976 -0.2583442 -1.9242122 -0.8485646
out 2.5276709 1.2832019 0.3844827 -0.5949217 0.256625 -0.17076378 0.64769167 1.0843754 -2.2207253 0.28514144 -0.009259764 0.60418713 -1.3577586 -0.97957563 -1.2441385 -0.47901207 0.69059515 0.79935616 -0.2896577 1.6595122 0.94769204 0.2823949 0.7442362 -0.4124716 0.08537223 -0.468313 1.2187697 0.22241247 -1.6309075 0.28511956 0.041534066 -0.436019 -0.15100178 0.123134896 2.113717 -0.49489114 -0.07963265 1.1899253 -1.0045015 -1.0644798 -1.2022818 -0.15691315 0.53118885 -1.0502977 0.090390325 -0.077480026 0.7972262 0.65950924 -0.981642 1.383866 0.66674024 -2.3982692 1.4421045 -0.60222036 -1.0037231 -0.41526806 -0.3618864 0.3133216 -1.4454767 -1.02552 -0.019910375 1.3383945 -0.21311364 -1.1797992 -1.4222511 -1.0618929 1.4292867 -0.58400786 2.618461 -2.2058945 0.43003526 -0.78245 -1.2864872 1.0798806 0.6483583 -0.98501104 1.2230499 -0.76694745 1.3564888 -1.0677212 -0.15423213 -2.7984524 -0.061228793 0.5885771 0.49253383 0.043781407 2.5367758 0.26259848 -0.07308885 -2.5346088 -0.018562071 -0.9934533 -0.15731107 -0.45035458 0.06345248 1.317232 0.35707423 -0.29086265 -0.05467674 0.5238197
by 0.035547324 -1.1931463 0.9378388 0.19849283 -0.5972075 -0.17981952 -0.15261608 0.104231045 0.6651363 0.65255797 0.7991685 -0.37704152 -0.8784218 0.1637819 -0.3070015 -0.49883348 -0.053637963 0.4295665 0.2907299 -1.1685369 -0.33491948 -0.816474 -1.4327284 -0.7180404 -0.3231551 1.2716928 1.5972921 -0.12687042 -0.74173385 -0.54903466 1.6239537 1.2862167 -1.1419696 0.2378865 0.27772418 -1.3777264 1.5051864 1.1948252 -0.44960546 0.30518657 0.4615052 -0.38114434 -0.28877056 -1.0636506 0.43323547 0.9733057 0.28617793 0.5907113 0.18318191 -0.70190907 -0.26202297 0.10712579 -0.9851862 2.1014361 0.90681064 -1.7564168 -0.13356695 -0.6791868 1.452649 -1.0972328 -0.07674494 0.53978443 0.55833095 -1.0603662 0.10345271 -0.7819708 -1.7349842 -0.20903312 0.9876255 -0.08340945 -0.19459723 -0.1075254 0.37010396 -0.8605577 -1.0869623 0.762082 1.4644523 -0.38433185 0.22702171 -0.594532 0.050166804 0.6024165 -0.71746415 0.0443392 0.6472477 0.3709538 0.4928079 0.36336058 1.314315 -1.1173086 0.06943143 1.6411257 -0.120603435 0.18438175 0.153585 -0.16562791 -0.34427577 1.3090553 0.7575325 0.12096414
them 0.6318675 0.35405105 -0.049464535 -0.25401533 -0.3053984 -0.21132953 0.39842957 -0.3919327 -1.1614708 1.4090587 -0.6671154 1.0724378 0.5780328 -1.0297009 -0.39696974 1.022034 0.008209228 -0.0347242 1.1601713 -0.08249215 0.78615314 -0.41129276 0.1816768 -1.1980896 1.1078576 -2.3068955 2.3517413 0.7820376 -0.7826885 -1.055362 0.9895122 -1.6470114 -0.92415005 0.34972492 -0.22275455 -1.0892515 0.46403897 0.31373256 1.0596937 0.4101706 -1.890419 1.1782526 0.0015030766 1.218196 1.209036 0.8105239 0.53920305 -0.36812642 -0.10937079 0.5702241 0.4289678 -0.3472269 1.1510288 -1.946992 -1.432523 0.46725556 -1.1834638 -0.31998998 0.17607652 -0.37358746 0.43667015 -1.0281292 0.4633408 0.6815582 -1.0071381 0.54422826 -0.8473796 1.0513054 -0.5733284 0.009609197 0.2843476 0.55487823 -0.7311513 -0.4368295 -0.9080318 -0.93066394 0.31973687 0.2553558 1.3279692 0.66522783 -3.2666352 0.28611982 1.7062672 -2.1075392 -1.1490959 -0.081824064 -0.30609733 0.3060588 1.5187346 -1.1274731 0.43837985 -0.68676513 0.4526498 0.83481187 -1.3985002 -0.7952389 1.6831851 -0.10488702 -1.7046715 0.68228024
how 1.8265324 -0.20884632 -0.020755269 0.47685248 -0.19291586 -1.1052089 -1.6605009 -3.3956933 0.7381767 -0.115700535 0.46625564 1.9437774 0.458828 1.0881742 -1.38483 0.03900476 -1.318738 1.5585662 -0.4064581 1.9801357 -0.20657936 0.74139893 0.5212084 -0.9935291 -0.762712 -1.3796029 -2.0124571 1.3046167 0.042303264 -0.5205296 -1.1745902 0.12815425 1.5147053 -0.87462866 -0.5073212 -0.058379576 -0.96080536 0.40636054 1.9231975 1.3811795 0.48842955 -0.52762663 0.6300209 0.41730034 0.80358946 0.08162076 1.654329 -0.6684025 1.4747784 -0.87129587 -1.5848062 -0.5474102 0.6694282 0.50443065 0.5553206 1.0691628 -2.9985473 2.3761275 1.8387065 2.9869528 1.69849 -0.6956526 0.9546942 1.2410899 -1.0104923 0.29896024 -1.7920388 -0.15216853 -0.001553916 -0.95365655 -0.1608766 -0.119082436 -0.04474402 -1.292008 2.0155034 -0.617613 0.33653608 -0.9981636 1.421993 -1.7312196 -2.7381608 -1.6461643 2.8469667 -1.6707511 1.5375929 0.88681173 0.21375515 -1.5012281 -0.18852022 0.02630666 -0.3625291 -1.5754738 0.012318721 1.3606672 0.25727996 -0.455459 1.4589765 0.7689827 -0.30190048 -1.0205618
know -0.109982096 -0.21940476 2.16944 0.48056033 -1.6699766 -1.7148477 1.0025231 1.4149891 -0.06315691 0.07340296 -0.18297589 0.5342754 -0.4863474 -0.51755446 0.5519339 0.5206138 -0.342584 -0.91314805 0.6566017 -0.51647115 -0.47335592 0.6678675 2.0852978 0.07487766 1.0281734 -0.7006105 -0.08377048 -0.7359329 2.0486677 1.0468636 -0.9560629 -0.082928166 0.8563171 -0.070250936 -1.1663997 -1.0023526 -2.331102 -0.66484666 0.40937823 1.5565938 -0.8648158 -2.304458 1.4984611 0.29184946 -2.0582755 -0.38973352 -0.008705952 -2.66523 0.8184941 0.1695752 -1.1706984 -0.41037658 0.22370173 -0.22003548 -1.6588846 0.6390661 -0.40166488 -0.046211377 -1.5980302 0.63829553 -0.01706309 -0.65042573 -1.0849708 -1.6915832 0.59727734 1.3625311 1.4083313 -1.2289662 0.66395515 0.1454566 2.045157 -0.50753397 1.4223619 -0.39119232 0.27496886 -2.1938112 0.9422677 -0.3815314 -2.0031133 0.6511949 -0.5338352 -1.2846999 0.11602072 -0.9319651 1.8623898 -1.4233072 -0.09136202 0.73193157 -0.6710207 -0.2840204 -0.02994748 -1.548119 -1.1681498 -1.0351613 0.9420448 1.4011934 0.21465266 -0.9694287 0.65837264 -1.9202002
up 0.57213175 -1.9106474 0.2873193 0.3365378 -0.58863413 -0.38690433 0.25477168 0.2968917 -2.4467506 -0.05666831 -0.2438677 0.83798397 -0.017885322 -1.0327296 -1.584839 0.13080978 1.0794874 -1.8672541 -1.7326549 0.53352153 0.67569846 -0.78763944 0.19757727 -0.7429856 0.13685311 -0.7727589 0.70190465 -0.56831235 -1.491724 -1.4085814 -0.39635316 0.57844526 -1.3095998 0.42540184 1.3441579 -1.3215362 0.7158995 0.19625548 -1.0704504 -1.2247795 0.06653248 0.72364926 0.110412866 0.112147704 1.1158572 0.6554353 0.51679564 0.49947506 0.22182055 1.8473558 -0.35227302 -0.98476964 0.97910076 -0.16735354 -0.16207771 0.08855195 0.3216499 -1.9775382 -0.07327272 -0.61977637 -0.12045899 -0.34622398 0.6949589 0.57332444 -1.2323604 -0.8156582 0.49765792 -0.65363985 0.50214 -1.5200441 1.4526383 -0.79896003 -1.5847045 -1.1735364 0.27881643 -0.21364652 0.37382886 -0.25902593 0.4758901 0.15556951 0.2746435 -0.52841645 -0.19172272 0.1400792 1.17973 -0.09813018 0.8132901 0.41794166 -0.7143952 -2.3577178 -0.927175 -0.8115949 -0.21012118 -1.341579 -1.1264299 -1.7528583 0.7603074 -0.9579015 -0.47399214 0.6144961
going 0.12152129 0.75286466 -1.3516871 1.9752243 1.9779347 -1.1276278 -1.9157374 -1.148909 0.9809502 -1.7588392 -0.12211725 -1.2852942 2.0021534 0.42004192 0.9081998 0.0089171445 0.37739685 -1.2787685 -0.467659 1.5565865 -1.7829232 -0.98295176 2.174104 -1.1199734 -1.7397777 -1.1698776 0.5443234 1.4554152 -0.35742626 1.570539 0.52450955 -1.5540538 -1.5994486 0.9618662 1.7543828 0.23168218 -0.4923347 -1.5231489 1.1731153 -0.17881788 -3.2908733 0.9988733 -1.3826851 -1.2604518 0.7204127 -0.6661082 2.1189456 -1.3238182 -1.1139549 0.65415734 -0.5391264 1.691441 0.8902347 0.2797519 -1.9991399 1.1774086 1.6064489 -0.25426668 -0.50570863 0.1539686 1.0221277 0.85360444 1.388815 -2.0072002 -0.57668835 0.97679055 2.2850401 1.7263457 -0.45005032 -0.6623744 2.1319175 -0.2989571 3.1987765 1.1165454 2.13452 1.1319224 -1.3683112 2.6444774 0.72673196 -2.0837176 -4.0924883 1.4402586 1.1947472 -2.475724 4.2078133 -0.6930837 1.1107392 -0.5831687 1.1651591 0.0023022152 0.6984158 -0.20212829 -1.2579253 0.15229389 -0.89261097 0.7134233 2.4791017 -0.6974445 -0.9258548 -0.11774034
had 0.35478362 -1.2544636 2.6498826 -1.731629 -2.5617692 -0.4641964 1.2704462 0.9203499 0.8012185 0.28933823 0.35898137 0.5544611 -0.5945953 -2.30038 0.74809796 -0.9461482 -0.7113055 -1.4303477 0.45104557 1.6616282 -0.20014645 -0.6171731 -2.0012794 0.5304347 0.31153673 -0.038041014 0.95417136 0.5173772 0.046584498 2.2133636 1.7202114 -0.86989015 1.0404546 0.81380767 -0.03948229 2.5305068 0.61105764 2.1483016 0.07421131 -1.0538802 0.81043303 0.8536617 -1.3357264 -0.26510778 -1.3037093 1.3468066 1.562271 0.88946676 -1.811856 -0.88136756 0.48203844 0.7753861 0.5650125 0.2897225 2.2124333 -0.28281358 -0.59390825 1.3026514 0.70795655 0.16223551 -0.46689132 -1.2812984 0.85883534 -0.6567128 -1.4034331 0.2836759 -0.38622937 -0.29616648 0.051240627 1.041385 0.84939504 -0.084615774 -1.6862016 -0.2715957 -0.69999874 0.24961872 -0.31773043 1.0693619 -2.3623028 0.75637704 1.6071335 1.5288477 -1.482408 0.07968735 1.4536532 -2.7664886 -0.5502345 0.110038996 -1.9536895 0.09666094 1.4844329 0.2840049 1.4562064 -2.7381105 -1.254132 0.024803273 -0.21412335 0.845625 -1.5309321 1.1427797
more 3.0181377 1.3303659 0.86009705 2.0847397 0.6380327 -1.5346568 -1.173807 -2.1836436 -0.9086415 1.2398306 -1.1599381 -1.5406084 0.6533059 0.2518127 -2.9959433 0.79280907 -0.693734 0.61986387 0.6345684 1.0768455 -0.5304089 -1.3999656 -0.5670721 -1.1931046 -0.39526665 -2.432675 -0.48974723 1.6506845 -0.21885885 1.0522254 0.5435403 1.8997139 -2.9667263 -1.2386026 -0.6369194 -0.10383073 -0.24466293 -0.7230999 -0.2857267 1.0302669 0.6540387 -1.4798626 -1.7792649 -0.7892316 -1.6295704 -0.32160038 -0.17577316 -2.830607 -0.6827287 -1.4836168 1.0265156 -0.057850756 0.15909053 -0.52237946 1.9768246 2.06405 0.24967234 0.10627683 -0.17042685 -0.714672 1.853508 -1.5130436 -0.6730951 0.3786247 -0.17956766 0.1351806 -0.57105315 0.41659206 -1.0761774 -1.3331867 0.093830325 -0.027479913 1.0064706 -0.40496847 -0.23833598 0.48633578 -0.111444496 -1.1058215 -0.72211343 0.2525295 0.7875804 -0.24696553 2.4312315 -0.59321415 -1.1558352 1.9131916 -2.1396658 0.086804196 0.62199706 -0.5778831 1.0326079 0.82534415 0.8162238 0.23828779 -0.1605887 1.4192288 0.41529152 0.41568133 0.67859274 0.43227264
think 0.52514094 -0.012581434 1.4615011 1.4480182 -0.86040163 -1.5664861 1.9340168 1.0400163 0.49810663 -0.6330372 0.14328262 -0.10844041 0.10901245 -0.5473483 -1.2385974 0.7231182 -0.1462426 -0.78714204 -1.5089095 -0.85595924 0.55163556 1.0662016 1.4694026 0.68315434 1.8466575 -1.4943309 -0.7049068 0.54533875 1.6264614 1.6323047 -1.317719 0.6038002 1.3652717 -1.0780767 -0.49764684 0.53679234 -3.695561 -0.2663982 0.5765073 0.57114935 0.16627163 -2.208366 -0.031042162 0.5741271 -0.5674322 0.67518216 -1.2358559 -2.8618388 0.07735671 -0.059926495 0.9812069 -0.91153365 -0.03991034 -0.16453603 -1.5417477 0.6529816 -0.40979174 -0.7906164 -0.48248744 2.4287865 0.10956244 -0.69139016 -2.5938516 -0.86393964 0.88462555 2.0526657 0.39195478 -0.40888128 1.5764074 -0.28604594 0.8155788 -0.20605132 0.35578284 0.35795298 0.20405574 -0.51167786 2.3479922 0.27429843 -0.9980941 0.3651177 -0.9003353 -0.3430492 -1.1252811 -0.912177 0.33165178 0.59524745 -0.4906452 0.7493809 0.61433476 -0.57137185 0.17263584 -0.97611874 -1.8539743 2.39588 0.9610155 0.6625099 -0.40882728 -0.9663583 0.61593765 -2.8542385
who 1.5556806 -1.1040192 0.75394434 -0.3166565 -0.6048184 1.185231 -1.2175653 0.9559018 -0.26499113 0.02357801 -0.046644535 0.7494014 -0.8541383 -0.2313149 -2.6159053 1.3908548 -0.87708384 0.7812784 3.3357244 -0.24223404 -1.1750618 0.42076322 -0.5630833 -1.958848 0.975196 1.1544793 0.6374917 0.8466743 0.75553656 -1.3742411 -0.12398093 -0.61888945 0.92934394 1.4394108 -2.1852443 -1.4670504 0.81911117 3.0980506 -1.2318217 0.76436293 0.1908304 1.7338382 0.050449118 1.9486334 -0.38171104 -2.312199 -0.34079915 -0.663354 -0.36010876 0.8248785 -1.2820497 0.91829324 1.0816602 1.7522287 -0.6492283 -0.5267248 -0.99124277 2.1081526 1.1691812 0.8025404 0.90456164 0.9980039 1.6049078 0.8024635 -1.7121211 0.34912208 2.2411525 0.091763474 -0.40708062 -0.5480168 0.6975919 1.8572223 0.91708684 0.067375466 -1.6700939 0.9175107 -0.8799843 -1.4641303 1.645562 1.1302506 0.23410597 1.3163354 2.2852278 0.4539528 1.0770861 0.15242854 0.92197686 0.46657908 -0.49436575 -0.84002215 0.7718677 -1.5400684 0.32737756 2.1358082 0.33644676 0.36068887 -0.99499065 -0.33090255 -0.3784095 -0.37529364
were -0.33690268 -0.5414084 1.7469366 -1.2297784 -0.3692619 1.8195932 0.76563483 -1.0508057 -1.2564532 0.9579041 -0.71450293 -0.60950583 0.090211086 -2.764778 0.6762367 -1.790114 -1.1249301 1.5766122 -0.41252485 0.03439259 -0.31938282 -0.87227654 -0.048635066 1.199408 1.5933563 -0.457337 4.0237904 1.4479152 1.1818448 1.0446 0.7072899 0.1474286 -0.10455687 -0.6545087 -1.7043726 -1.0028745 1.4284109 2.5714033 -0.2750681 -0.39561287 -0.8691023 0.34987986 1.0642694 -0.31043965 -0.91113544 0.7516604 0.31305397 -0.6114146 -0.2840306 -0.9290817 -1.1248939 -1.5655764 -0.901733 -0.97456735 -1.4674479 -0.9761868 0.4361754 -0.32783875 1.2325611 -0.4114218 -1.8301739 -3.2790504 0.053732906 0.55815953 -0.012724592 -0.57214475 -0.8665974 -0.20412019 0.79749423 -0.21458225 -0.14519008 0.34296778 -0.38096878 -0.23619542 -1.8188703 -0.46402717 0.6808185 -2.7256432 -2.13869 1.4577497 1.0275246 1.1850898 -0.13538845 0.084110275 -0.81214154 -5.5819716 1.604484 0.0031552876 -1.9936574 -2.1967072 2.0298598 2.602069 -0.16536658 -1.8978822 1.3189079 -0.5520237 -0.6371283 0.38840234 -2.0151865 1.6439222
see -0.27743533 -0.28972834 -0.19451994 -1.2524736 0.66044056 -1.3482268 1.3934727 -0.44695362 -0.4623258 -0.22059505 -0.7855477 1.7316171 -0.7918762 -0.7039854 0.052469794 1.1360593 1.1747013 -0.4494673 -0.19393134 0.8926118 0.6210727 1.8991989 1.7957636 0.92740184 1.0905281 -0.48013023 0.55331117 -0.09050503 1.1565177 -0.74564797 -0.87484485 -0.06050295 0.013698913 -1.1501775 0.25539377 -2.0965462 0.36078364 -0.2659036 0.24487606 0.39257944 -1.1683732 -2.957556 0.28098273 0.6183885 -0.2184508 0.3872278 -2.9865632 0.63308376 -0.121522985 -0.6961227 0.46193835 -0.9387581 -3.6244657 -0.38218305 -1.601332 0.17184128 1.0417112 -0.12250523 -1.2052472 -0.7434452 -1.0488322 -0.5550761 0.5555837 -0.966775 0.523536 -0.47371766 -0.1918393 0.0714628 0.4109142 -0.25208655 2.348954 -0.025724055 0.8941972 -2.740261 0.6347016 -3.2908864 1.585606 -1.2991474 -1.7532567 -0.049121574 -0.3576041 -2.5156193 -0.1387609 0.9831982 0.9452871 -0.869543 -1.4252666 1.1399628 0.027737746 -0.5699419 -0.17400214 -1.5630304 -2.221286 -0.06947957 0.6130859 0.48496982 -0.42110094 -0.9855543 0.42647555 -0.94243306
your 0.5219272 2.7675283 -0.56002676 0.046190556 0.34820986 -1.4218892 -1.7479937 -0.64945716 -0.09838444 0.58482933 1.1713964 -0.17339921 1.2180167 0.05490682 -0.09607027 3.0112293 2.7116575 -0.4136847 -0.5962436 -0.60952145 0.3061207 -0.79122055 0.67022306 -2.714016 1.5931072 -2.7246146 0.18833639 -1.2221438 -1.342141 -2.7864034 -0.35481286 1.3763702 1.4082965 2.1510148 0.14293501 -0.83157843 0.5602972 -1.7041683 1.3789921 0.75589633 -1.036083 -2.3381753 2.931782 2.4109821 -1.2903261 1.1350521 1.2944518 2.1526265 1.785769 0.21199954 0.13220647 -0.1333898 -1.3432655 0.19731583 0.011958934 1.2654248 1.2237442 -0.28724545 -1.0555613 -0.22591403 -0.1519081 0.53611934 1.1583493 -0.2334438 -0.22695501 -0.104658656 1.7149642 -0.19395117 -0.48878014 -0.34711584 -0.727627 1.1322151 2.285448 3.1094964 1.5046026 -0.103508696 0.9422814 -0.910917 1.3387318 -1.6774453 -1.3552972 0.7155129 -1.5604719 0.12243982 -0.15918827 1.278088 -0.36094552 -1.0075667 -1.028095 2.0502212 -0.84825146 0.44686407 0.2782871 -0.5076624 -1.3402979 -0.4822457 1.7300436 -0.7542903 -0.8183468 0.42329204
their -0.043898977 2.0701363 0.37145796 -0.1216498 0.57842547 0.8456216 0.4718059 -2.2089965 -0.13604634 2.1285708 0.8023282 1.3723878 1.3414164 -0.06369856 -1.0135391 2.2960668 -0.33586305 0.4302882 2.199859 -1.3894981 0.44405195 -1.9252194 0.68703985 0.55768096 1.664109 -1.448114 2.0978312 0.66004217 -0.79213184 -2.0829961 1.0137117 0.5504398 -1.0208905 1.2462398 0.53469604 -0.7719274 2.0881038 0.72301066 -0.24086875 -0.44903594 -0.5377036 0.4621074 0.107750386 0.5726293 -1.0426286 0.13052309 1.1803797 0.712554 -0.16735181 -0.2000049 0.92159534 -0.24883173 -0.7351795 -1.1592394 -2.174146 0.06705822 -1.3105482 0.7413221 1.0034528 0.6835636 -0.025161171 0.068997204 2.1417267 1.1133881 -2.5664372 -0.6837267 -2.129115 0.29983667 -0.5192497 -0.92520547 -1.2222767 0.6367155 0.026743975 0.9440942 -2.2439911 -0.76963025 1.8559431 -2.2203708 1.4735585 0.070534855 0.30543017 2.0685031 -0.59428674 -2.9761117 -0.09855944 -0.68207645 0.8043426 -1.0813996 0.8311229 0.07993323 2.5543175 -0.98746806 3.202654 0.8913 -1.0467805 -1.7463182 0.3087914 -0.60672385 -0.57966083 0.63160485
which 0.89120966 1.0231494 -1.8272091 -0.7945654 -0.5098809 0.25750288 -0.76147246 1.0032723 0.9635712 -1.1499561 0.365738 1.2553091 0.76573557 -0.04689579 0.23322707 -0.32549375 -0.878929 0.6084209 0.28120923 -0.74536204 -1.0287875 0.10241038 -0.3935776 -0.44964588 0.7145951 -0.8909865 -0.26901773 1.1373049 -0.24331793 -0.90421015 -0.25885224 0.82822967 -1.3069779 -0.959935 -0.073869795 0.28801942 0.4601874 0.6863842 -0.45380825 -0.38819337 0.67449147 -0.9132748 -0.293304 0.639131 0.4936372 -1.0953258 -0.13299008 0.8216174 0.3035052 0.19586252 0.4168769 0.54453343 -0.063745566 1.3976887 0.53231525 -0.9173084 -1.0003457 -0.8471169 0.5662554 -1.5184009 1.3289901 -0.04990522 -0.5264722 1.0149074 0.8111924 1.3096702 -0.38168842 0.2084278 -0.011768041 0.4828968 -1.3893539 -0.7857234 -1.8904037 0.40723628 -0.71995306 0.32354832 -0.84234655 0.34112948 0.9199642 -1.867927 -0.15150411 -0.25678334 1.1048603 0.6714787 0.76181066 1.1178885 0.12624218 1.195318 0.6199076 -0.05453915 -0.8312013 -1.1144948 0.32896128 0.2775056 -0.9237578 0.30695048 -0.74628544 0.86072594 1.5161065 -1.8103642
would 1.9387361 -2.182632 1.8574339 -1.2184285 -1.8958478 -0.33475548 0.09462244 0.6702386 -1.2286372 -1.4987601 0.45426002 -1.6876646 0.4258199 -1.0129044 0.7970937 -0.5689673 1.8668518 1.0809047 -1.1599916 0.8281176 -1.4537982 -2.1009336 -1.153288 0.11597694 -2.430689 0.007685956 0.8298487 1.0272826 -1.7962238 -0.24392623 1.9988593 1.1727744 1.0309775 0.10001992 1.4508727 1.5949553 -1.2950207 0.21503346 0.9377844 -1.8398348 -0.44368795 0.18928869 0.6184846 0.16235578 -0.7458098 0.55833036 1.7177182 0.09919507 -2.4799478 0.13180555 -0.52879816 0.6756538 0.29633474 -0.16274202 -0.2050902 -0.009184607 -0.59489137 2.8027275 -1.9253529 1.430481 -0.7329221 -0.82701516 -0.34430656 1.2449489 -0.08179355 -0.3284819 1.2621773 0.088935316 -1.4258233 -0.09903139 1.3369261 -0.7616642 1.0911945 0.6674612 -0.36885062 -0.97786504 -0.9187507 1.7446595 0.6771573 1.1486261 -1.0045038 1.9214818 0.6145479 -1.8740672 -0.26836044 -0.6416599 0.20495526 -2.0786235 0.1882832 0.08937056 2.515486 0.8983753 -0.05103016 -1.5562695 -1.7974818 -0.9514922 1.6949666 1.3086975 -1.3205189 1.4919897
here -0.358239 -1.4003938 0.052444454 0.25648624 1.2706659 0.56486416 -1.8384427 -1.3406509 0.043625034 -1.3888552 -0.08803732 -0.48827332 -0.3804998 0.39415124 -0.48813328 0.17891496 0.5894476 -0.75575554 0.8935373 -0.015014381 -0.02738007 1.0211545 0.33277008 -0.419708 0.03371942 0.42931032 0.24647371 -0.3302007 0.26544148 0.4261549 -1.0269964 -1.1685437 1.2695227 0.06655679 1.1821028 0.4579177 -0.012495547 -1.3595605 -0.024711672 -0.7523855 -1.897494 0.30463976 0.9813523 -0.36995718 0.94626105 0.3560353 -1.7232896 -0.2928942 0.08218621 -0.11965891 0.05713029 1.152541 -0.4926063 0.05143244 -0.07496832 0.714779 0.86477983 -1.7363827 -0.9250353 0.76893973 -0.44351244 1.4454834 -0.79493314 -0.71642196 -0.8951781 0.22021894 0.7648537 0.68663925 -1.1885521 -0.117493205 0.96662235 0.2599934 -0.3524032 -1.0928878 1.2248398 0.7398173 -0.77162325 0.20936213 -0.7045953 -0.25413305 -1.6862651 0.4032881 1.5785764 -0.37294972 0.5025241 0.056787673 1.1706189 1.0421029 0.28783867 -0.66616535 -1.3249037 -1.4873183 -0.61739737 -0.14426695 -1.1927536 0.13689418 -0.98874074 -0.10936299 1.6487565 -1.1580133
really -0.5691932 0.95677894 -0.06313312 1.4746405 -0.3808586 -2.0245206 0.50244004 -0.74602145 0.508234 0.07803499 -0.04237115 -0.18498176 -1.1972343 1.8767836 0.5023239 0.5247457 -0.854269 -0.10050403 -0.5623766 0.38837105 -1.1906232 -0.20656203 1.2123094 -0.8159486 0.2490237 -0.21710448 -0.5108687 0.09673754 1.4454359 0.54518425 -1.1217629 -0.7692821 1.12196 -1.424079 -0.7591427 0.69226956 0.7950718 -1.6453087 0.79814583 0.7448578 0.6594016 0.46893728 -0.7384188 0.25339523 0.58613956 -1.0853517 0.38805366 -2.4127662 -0.6137649 -0.06596458 -0.7425234 0.6156697 0.6085705 -0.88232124 -1.1000009 -0.22946544 -1.2519338 0.5254015 0.33456475 0.9398523 0.33408722 -0.10021384 -1.4527422 -0.29063028 0.24385005 0.90499014 0.15392002 -0.39092627 1.2249689 -0.58754045 1.5178438 0.68758357 -0.45613235 1.008646 0.72144055 -0.6605691 0.28640386 0.41716155 0.44362736 -0.4420137 -0.01652769 0.524588 0.7043232 -0.10382627 -0.083669156 -0.31759655 -0.7119626 -0.4184046 -0.283667 -0.64891106 -0.05875501 -0.49036676 -0.5659303 1.3541666 -0.18160127 0.12163287 -0.3434059 -0.07903845 0.50018567 -0.7320079
get -0.450721 1.0964317 -0.34760582 -1.0918672 0.49983677 -0.81464165 1.4304886 -0.6883787 -1.1314014 1.8938458 -0.45894787 1.1481718 -0.3880947 -0.42164695 -0.29539973 1.8687371 0.62538654 -1.808445 1.4877666 0.99473214 0.31011093 1.498547 1.6677005 -0.4315736 1.6810426 -1.766741 0.7024818 1.282792 -0.74593335 -1.3675911 0.33971322 -1.0509506 0.42180264 -0.68941754 -0.20683265 -1.6988398 -0.9747702 1.0164183 1.5934566 0.7711951 0.00012388472 -0.20063731 0.30555385 0.46665275 -1.6083148 0.9503546 -1.3716221 -1.6250912 0.6603037 -0.5432949 0.8662642 -0.056520045 -1.4900064 -1.3489269 -1.637375 -0.8239557 1.2591617 -0.34050655 -0.5102772 0.18115914 -0.16908918 -1.5742598 0.020526515 -0.40116915 0.74532634 1.5141358 0.0064922716 0.16529304 1.6390011 -0.15052092 -0.11807956 0.03732227 0.6123539 -0.54467565 1.1485448 -1.3678337 0.5592325 -0.87105143 -2.208894 -1.3033934 -0.6831757 -0.45265272 -1.4924176 1.2010555 1.4648017 -0.22714816 -2.1190703 -0.69645745 0.08864314 -0.37800652 0.2166268 -1.0062941 -1.8934479 -0.58852243 0.617591 -1.0600867 0.53766125 0.46024483 -0.6858028 1.5574691
ve -1.7932575 -1.756229 3.8717983 -0.35960314 -0.49267313 -0.27835056 1.7521113 0.32873178 1.8581301 -0.72593635 -0.009770758 -0.45411915 -1.3421077 0.1902112 -0.0360959 1.3260922 -1.5757855 -1.4471112 1.0131646 -0.183776 -1.784531 -1.1304213 -1.684337 0.11336628 0.6776167 -3.7733803 0.32065365 -0.4665225 -0.7766223 2.1417882 1.8842069 -0.8103336 0.8416761 2.1991484 -0.6385875 0.33355132 -0.98909914 0.22723646 1.4766439 1.728175 0.18326287 -1.406403 -0.46439773 -0.49034017 0.9468666 1.697064 2.051112 0.007387091 -0.30902088 -0.29053208 1.6002834 -0.7083981 0.48946813 -0.44443637 1.6912652 3.107306 -1.4428716 -1.150503 1.8719784 -0.47062778 1.3926668 1.334825 -2.6207044 -2.0137348 -2.6619663 0.1327328 -1.8852143 -0.31516713 -2.7816818 2.6977034 -0.5933923 -2.1173754 -1.549672 -2.164158 -0.82419956 -1.0274452 0.7913017 0.23179258 -2.636606 -3.3457427 0.010490884 -1.6439625 -0.3942242 1.1555912 2.6697013 -1.8951058 0.9436763 1.8954036 -3.592853 -0.6155885 2.7077975 0.57478535 -1.6205254 -1.4583665 -2.2537527 2.857725 -1.2780408 -0.025440339 -2.4973574 0.3880221
then 1.7286118 1.6037651 -0.32046002 -1.1899307 -0.94018084 0.70521736 -0.5693087 -0.99227744 -1.1415857 0.5205142 -1.2581929 1.0287958 -0.7130491 -0.271183 0.48052847 0.4670689 -0.18094993 -0.1690341 -0.48118857 0.31183985 0.74828535 -0.26143613 0.34215212 -0.22628942 -0.28154886 0.38256043 0.6226691 0.50755227 -0.45853645 -0.20446965 0.5051749 -0.1067907 0.13391197 1.2548267 0.6808363 -1.0507178 -0.41455165 0.28526083 -0.10920035 -0.27750736 -0.87127936 0.32375902 -1.6325895 0.72856987 0.42267516 0.7288957 -0.39470667 0.9157899 1.0215752 2.3104136 -0.19646183 -0.5111607 0.2958675 -1.2222577 0.4126069 -0.7283822 0.028658055 -0.4238057 -0.6854622 -0.6215807 -0.4717727 -1.2726971 -0.59454453 1.7553648 -1.8708532 0.28167 -0.12922235 0.17428763 -0.24598813 -0.43504807 0.20415778 0.8527064 0.6482452 -0.7024487 0.56365806 -0.5752668 0.5702513 -0.17915705 -0.31086463 -1.0397818 -0.6721846 -1.405993 -0.37873137 -0.18979228 0.96596867 0.25266424 -1.0799338 -0.192156 0.56514466 -0.86790526 0.09738447 -0.27398494 -1.2802215 -0.8856691 -1.5279557 -0.06276597 1.1994921 0.08691473 0.49587637 0.40697786
m -2.1786463 -1.2081289 -0.19799396 2.6894088 0.8269443 0.5723254 -0.35167477 0.4847984 0.9575488 2.2381713 0.86315256 -1.0443449 -0.18013363 -2.072461 1.296946 0.99184394 1.8991437 -0.95326763 -1.8248572 -1.0980275 0.31986377 0.4611632 -1.207136 0.008036067 0.3202923 -4.312147 -2.9534223 -2.5152063 0.41561264 0.46043113 0.35219342 -0.8447895 1.208118 2.6259031 0.7696432 -0.320191 -4.2667074 -0.72931325 1.5317003 0.20902595 -0.91653174 -0.022593629 2.5767512 -1.2461438 1.6498836 1.2962577 -0.3807236 -2.0497324 -0.92986506 -0.30811086 -0.99616635 -1.0518471 0.069927566 -1.0154597 -0.3536203 -0.027086642 3.1624944 -0.44571185 2.858391 3.8335319 -0.20166843 -1.3108934 -2.121668 0.58401847 3.3040867 0.14033855 2.6048274 1.8132436 0.06336206 -2.5640156 2.0236895 -0.80883855 -1.8833033 -0.9915666 -2.226096 1.7785356 0.72095746 1.0213968 -0.30200815 -0.49330378 -1.2623382 1.142322 -1.0913287 1.3948938 0.5249581 -3.5968823 0.17607197 0.59202576 0.62156487 0.43013558 -2.9498658 2.071222 -0.81756455 0.31920007 -1.5629427 0.37651306 -1.3383096 -2.5818775 -1.6120778 -0.55820715
world 1.2760377 -3.4734476 1.1302159 -1.3766565 2.3320394 1.1353561 1.2217191 0.47235632 1.0076569 1.852705 -0.8843184 0.33152372 -0.4666901 1.1468048 0.5482287 0.5383578 0.15243906 0.10593725 0.3647686 -0.13577463 0.9075361 -0.04485773 0.33477896 0.8442866 1.0614129 -0.64686644 0.1340119 1.6285403 -0.7828608 1.7915776 -1.8635573 -0.022197066 -1.1469835 -2.4038188 1.713272 0.06642942 -0.04688543 -0.81681216 -0.5692149 0.62263083 -0.94689065 0.66431874 -0.027120877 -0.4668706 1.389326 1.0398474 -0.9201099 0.71178365 1.1706423 -1.0228947 1.5840479 1.4152675 0.8269832 0.64381665 0.3631999 -0.48910108 1.8896071 -0.8355323 0.26630867 -1.8223248 0.014776638 0.9402923 -0.46316764 0.4201574 0.43003416 1.2562343 0.1094592 0.6241855 -1.9532006 0.5806502 -1.8668146 0.25092423 0.8506975 0.11539641 -1.2725276 -2.052074 0.12577546 -1.1960932 0.83741456 -0.48981923 -0.499505 0.64879096 2.9927394 1.0253917 -0.08908766 -1.1475266 -0.34585804 -0.92910284 -0.25277668 1.5603596 1.2238505 -0.36628625 0.052281853 2.0004537 0.3387339 -2.3833356 -0.9278798 0.47579515 0.23577939 -2.4831958
us -0.92042285 -0.5726714 -0.15685171 1.1821711 1.4419253 0.51133406 0.83595407 0.36881092 -0.7846616 -0.85418504 -0.51871234 -0.336502 0.8625156 -0.86663115 -1.3911825 -0.34013063 0.25939554 -1.1359152 -0.45706642 0.7413677 -1.1059783 -1.4005963 -0.00904054 -1.0389212 1.1614165 -1.0660816 0.51538336 -0.6443135 -0.2079509 1.3732834 0.70594776 -1.0822173 -1.8941287 -1.2700052 1.293378 -0.45768064 0.524843 0.01425665 0.93791986 -1.0586035 -1.070965 0.4141426 -0.1352731 0.9113987 2.0189378 -0.5247903 0.48559535 -1.3085773 0.5839549 -0.332938 -0.10243729 -0.40192324 2.5464718 -0.86000293 -0.36054164 -0.12828523 -1.1148019 0.54566574 0.09434842 -0.61555386 1.2008871 -0.38335675 1.4197938 0.5903595 -0.40099025 0.08625837 -0.59694445 0.28063205 1.1222907 1.8465095 -1.7312227 1.5520061 -1.1384033 -0.46385524 0.13470767 -2.4457967 -0.61810267 -1.083968 1.4044666 1.3671522 -2.9947057 0.44808933 0.9080398 -1.5696914 -2.5538578 0.6074784 -1.3300886 1.0227416 1.437021 1.0299631 0.9965699 0.046452034 -0.011788017 1.7607398 1.9815851 -0.9947016 -0.10912186 1.2819351 -1.091823 -1.5091399
time 0.69963163 -1.87048 0.9769138 -2.6544502 0.17610358 0.1907875 -0.44542867 -1.6943792 0.2533366 0.64157957 -0.31079242 -1.199183 -1.3858489 0.6556251 0.180485 0.31177726 -1.4766887 -0.8140161 0.5832146 0.89731747 -1.5194881 0.5003459 0.97148186 1.1814535 1.3505113 -0.30323607 0.80672866 -0.75886214 0.21513276 1.0974061 0.7189709 -1.0102233 -1.7581142 1.4770999 -0.08266173 0.7282606 -1.2144195 -0.6016731 -1.1468474 -1.2112916 -2.9325628 2.5859537 -0.055641875 1.0899752 -0.878149 -0.91109735 -2.6130183 0.95180744 -0.42212448 0.6087402 -1.224353 0.27660838 0.39948004 -0.7841742 1.4302176 1.4844512 0.92062944 0.16696599 0.57412356 -0.1876013 0.12133349 -1.0486704 -0.38618034 0.69641805 -0.2514774 3.7493167 0.056402598 -0.56793386 -0.61296576 0.17326456 -2.34765 1.5122186 0.38461062 -0.14288235 1.5260215 -0.9519633 0.57266045 2.7709162 1.6563174 0.5652308 0.17770344 -1.3334286 -0.6604947 0.15994355 -0.14223906 -1.5000535 -0.048106186 -0.7714267 -0.5454355 0.2129556 -0.56466657 0.18892124 1.3462443 0.11467444 -0.66827434 0.01673091 -0.7291356 0.92746896 -1.5926927 0.3124306
some 1.0789826 -0.06501665 0.2613897 0.51645285 0.9324292 0.8909646 0.022384243 0.8865565 1.6152589 -1.0958078 -1.8149507 -0.18823941 -0.08864226 0.26894704 -1.6123564 0.9740748 -0.44871822 -0.07364994 1.4180251 -0.95091337 -0.14142217 1.192021 -1.3562822 -1.2274476 0.18539695 -1.92318 0.8775304 1.3594141 -0.44698477 -1.4808353 -0.49484384 -0.5123385 1.4835676 0.17741802 0.7715281 -1.065423 0.16892096 0.28880253 0.4649633 -1.6152025 -0.34911823 -0.49616295 0.28754327 1.3705273 0.837692 -1.143844 -0.4643156 -0.25012377 -0.10610497 0.34529006 1.318768 -1.4367551 0.005449025 -1.3208748 0.2731312 0.08187471 -0.28829592 -0.32300746 -0.07153671 0.5334287 1.0229459 -1.0061935 -1.0572735 -0.57022786 0.2788081 -0.98797023 0.7733123 0.21766776 1.9913627 0.044976518 -0.376822 0.74219084 0.24650152 0.8916151 -0.59714276 0.3350465 -0.46032038 -0.22448175 0.9331451 -1.1936568 1.4197583 -0.24545798 1.0716989 -1.7316612 -1.1198376 -0.4908411 -0.6356959 0.75291795 0.73310226 -2.083348 0.45002332 -1.3506559 -0.93100387 1.4183588 -0.14526173 -0.5944383 -0.034900237 -1.6466233 -0.0638835 0.40437102
has -0.0040974827 -1.8238571 1.4017874 -0.079188436 0.1715475 0.053637914 1.5455981 0.46969336 1.6356527 -1.5609766 0.72672474 -1.6103988 -2.4640222 -0.8268442 1.0674292 0.22317742 0.9417325 -2.73663 0.92589426 2.0135367 0.47323763 -1.7359414 -1.1694843 -0.28136232 -0.05841877 0.7740455 -0.8395197 -0.4532197 -0.7692725 0.54745454 0.84974295 0.8396577 -0.21275823 2.0926304 1.0518467 2.1531472 0.70067567 0.05306468 0.30997038 -0.35681364 2.5728235 -1.1431271 -2.5224202 -2.2996416 -0.31192178 0.9163401 0.5120416 1.5232636 -1.296787 -1.5274198 0.90678054 0.544884 1.0831736 1.1300926 1.794069 1.2467656 -0.7054182 1.8587617 0.5726872 -1.2003864 0.6812063 2.1842685 -0.042108346 -1.9599333 -0.08621903 -1.804456 -0.21734762 -1.5508631 -1.6804099 2.7249904 -2.4655836 -2.0449753 -2.2661436 -1.0369159 -2.2334743 -1.023614 -1.5161395 0.9473172 -0.7526801 1.1417636 1.4549674 1.7112623 -1.313662 0.5233216 1.39511 0.120627135 0.22403868 0.2811175 -0.79390496 2.988739 0.6653768 0.90099 -0.05588142 -1.7105769 -0.30492848 2.507887 0.17026444 1.0109715 -1.4507152 -0.44660673
don -1.70918 -0.83677703 1.642371 -2.08879 1.0352958 -1.5281312 0.10870574 1.102221 -0.9577719 0.35759777 -2.2047305 2.5156784 0.33110967 4.724382 1.419046 -2.1951215 2.7760456 -1.2124958 -2.564464 -0.15289487 -2.881254 -0.5598506 0.47494626 -2.5090182 -0.7633691 -1.0126756 -1.3597566 1.0405921 -0.8973789 -0.26977944 1.2411609 0.54190135 -0.043128897 2.5573075 -1.4261639 2.74376 -0.8544316 1.6488018 1.4240459 0.9977581 -0.40871224 0.0061571137 1.8917875 -0.48233065 1.3498335 1.725182 -1.3334017 -3.0625768 1.3373841 0.35132104 0.33745226 0.87656474 -0.2205195 -1.032783 -4.524003 2.7534544 -1.7839851 -0.12690426 0.0474896 2.2648468 -0.42037982 0.60438645 -0.8630971 -0.364257 0.19300091 1.853893 0.6888695 -1.5460606 -2.7034354 -3.6556551 0.86472845 -0.2958434 2.6815674 2.7196658 0.19726987 0.62566054 -1.9745417 -2.7740657 -2.2121184 1.6876335 -1.3928088 -0.1308099 1.0982821 -2.5994618 -2.1574097 0.83595544 -0.6782706 -0.75562793 -0.32375005 0.93617064 0.5643721 -0.073747344 0.4992316 2.2664967 -1.3833406 1.6460669 1.1546501 -2.2502742 -0.26073295 1.857936
actually 0.6940008 0.4977535 -0.25809938 -0.29810187 -0.6585188 -0.39942464 -0.6859993 -0.79303074 -0.56793386 -0.13505286 -0.18694282 0.08261492 -0.77908725 0.5482279 0.2338183 0.5536765 -0.57666606 0.40664974 0.36061847 0.12442259 0.1315575 0.80777 -0.36678904 -0.50835216 1.0051396 0.28678882 0.1338828 0.45906064 0.2178964 0.64124274 0.3292145 -0.6627878 0.04680715 -0.77779055 -0.069173545 -0.4534444 0.29453722 -0.23778456 0.6884315 -0.0018428343 0.3645793 0.14907219 -0.43141577 0.22316596 -0.13833976 -0.46175474 -0.41718006 -0.74276745 -0.31320882 0.300242 -0.1349352 0.2926582 -0.605067 -0.12114396 0.118983604 1.0674015 -0.14610171 -0.7579273 0.08546196 -0.697482 0.21715452 -0.4830649 -0.073017605 -0.5280607 -0.29779834 -0.41595662 -1.046881 0.5281118 0.9398149 -0.63968724 0.23138 0.13523006 -0.41462848 0.1397462 0.24129222 -1.1427901 0.19585946 0.43589565 0.27781898 -0.6133393 -0.6184103 -0.121105656 0.67245394 -0.17978005 0.19311166 0.19797885 -0.1232074 -0.51171786 0.014202887 -0.36053088 0.11814277 -0.3539625 -0.2958062 0.9578425 0.06668545 0.21549015 -0.006493657 -0.29982945 0.63942266 -0.4204677
into 1.4811802 0.25601357 1.0405542 -0.005823494 0.18553194 -0.031188099 -1.8497425 0.8360511 -2.216041 0.4893342 0.37116548 1.6302258 -1.1134251 0.44700816 0.09731592 -0.1487252 0.38059258 -0.8287411 -0.2931565 -0.44091424 0.666618 1.216415 0.60929745 0.6589461 0.032445498 1.6775398 0.80650085 -1.2079185 -2.7075741 -1.8316497 1.8406359 2.0369322 0.07394069 -0.11664932 1.139475 -0.08096767 0.35737216 -0.9376382 -0.57366663 -1.0460833 0.43521318 0.119064614 -1.5600132 -1.0879666 0.509589 0.8424757 0.3179224 1.5707688 -0.85259247 0.023846686 1.2297041 -2.0951638 2.44065 -0.9795089 -0.9658433 -0.45032063 0.3425826 -0.6223003 -1.7334634 -0.80548024 0.011887242 -0.59339184 1.8981862 1.0414823 -1.1076763 -1.1418811 0.5389529 0.62980354 0.97169304 -0.9900004 -0.74949473 -0.17949422 -0.8162592 -0.5046842 -0.90604794 -0.37328014 0.65477085 -1.0133808 -0.3862058 -0.24578837 0.021203587 -2.6614594 -1.9266366 1.2057011 1.328489 0.11968599 -0.35967916 -0.8815068 0.4980075 -2.6727347 -0.9257117 -0.123961695 -0.5614886 0.13718364 -0.39846697 1.0976983 1.2979008 1.3652015 -0.32511735 0.66533285
way 1.8395516 -1.9962882 -1.0765355 -2.6440253 1.0982264 0.0393261 0.5692133 -0.93605745 1.1364908 0.3305624 0.40197262 0.6792894 -0.23864336 1.7995851 -0.6309483 -0.12746912 -1.2617518 0.22338186 -0.069380835 1.9200608 1.5355682 -1.274402 0.79825485 0.24550682 0.59232026 0.79190195 0.267023 0.05071886 -0.83163464 0.888466 -0.1720478 0.27230114 0.30488887 -0.014014887 1.702385 -0.32969296 -0.15647541 0.27331316 -0.41336474 0.6677197 -0.88164717 -0.5078462 -1.2751179 -0.9296236 -0.9586928 -0.83332926 -0.023110908 -0.13583 0.8024462 -0.043963548 0.6159098 1.767999 -0.0071073934 -0.26162413 -0.0052982494 0.45098907 -0.80519533 0.5285822 0.71644276 0.813163 0.69491124 -1.4899812 -0.77768505 0.6058834 0.4061 1.2474247 0.07911899 1.9939938 2.735093 -0.280654 -0.53074896 1.5661993 -0.16575584 -0.5781959 0.045267943 -1.2077361 -0.256663 -0.110120565 -0.33887538 -3.2437325 -0.9141951 0.66622543 -0.24123192 -0.3591139 -0.04109764 -0.13531637 0.52222854 -1.0369986 0.14436899 -0.42397362 -1.1348348 0.110568084 0.017193725 1.5981736 -0.79143465 -0.058452405 0.61484474 0.78541696 -2.3268125 -1.0360426
where 1.3000627 0.069848 0.8345711 -0.734387 0.33848584 0.3955896 -1.9967151 -0.32712135 0.044898648 -0.8794774 -0.5364617 1.5229253 0.31137732 0.29232574 -0.034054678 0.84893554 -0.511597 0.5056695 0.6602579 -0.7564339 -0.8584164 0.9479404 0.8819159 0.13920873 -1.7986132 0.8773193 -0.54036796 -0.110354826 -1.3953563 -0.61141074 -0.98309696 -0.2543446 0.4732724 -0.96865153 -0.72969455 -0.11501132 0.5334553 1.1094183 0.20977941 -0.41326708 -0.5378728 -0.76392615 -0.57543916 0.6651909 0.88922685 -2.3097596 -0.5575021 -0.29935366 0.28814816 0.45197597 0.4609099 1.0298455 1.6100004 -0.14205873 0.7272251 0.37205297 -0.7849594 -0.97800654 -0.019434577 0.77660716 0.5515376 0.8895827 0.63767684 -0.042666662 0.07796207 0.58974904 -0.32674065 1.6676329 -1.2407925 -1.3034111 -0.5507656 0.118020795 0.29160306 0.23333576 -0.28765276 0.3314148 0.6818664 -1.9892409 0.96708727 -1.1487595 -0.5468043 -1.4407551 0.920267 1.3978145 2.7631807 0.013319459 0.8308402 -0.45421523 -0.49876022 -1.5182524 -0.6278298 -2.9611154 0.31083408 0.48183125 0.025964517 -1.2240744 0.4328055 -1.2534765 0.6959919 -0.56448483
will 1.4262625 -2.8754175 0.5295317 0.85539967 0.6852535 0.27113307 0.21499065 0.8677369 -0.76411784 -1.3398403 -1.5230547 -1.9044443 0.26782772 0.35796764 0.3964008 0.209535 3.3797412 0.60555565 -1.1824833 0.6959869 -0.7799944 -2.8046246 0.0058327173 -0.4204542 -1.4527466 -1.4726397 0.9478809 -1.0629034 -0.32272553 -0.047609974 0.03930857 0.31271908 -0.6830721 2.0104847 2.3669455 0.9791655 -0.30150467 -1.4999493 2.3183923 -1.8363913 0.19928522 -1.3305019 -1.0539273 -1.5168825 -1.0372542 0.07457306 1.8943379 -0.16511503 -0.20142788 0.032985818 0.6250452 -0.8025156 -1.0272719 0.014928468 -1.9627366 0.48887452 0.23616473 1.8192023 -0.7378414 0.9284028 -0.9995658 -0.4173514 0.67933965 1.840475 -0.056926757 -0.29363203 0.19430663 0.878387 -1.8533694 -0.0045906054 -2.1255033 -0.43594295 2.187206 0.25445482 -1.4626005 0.46539474 -1.4447365 1.1675652 -0.7100716 0.46991462 -2.691712 -0.6660014 -0.6246171 0.31879166 0.57674766 1.3055385 0.923571 -1.1324444 1.3450001 0.4086723 2.3736882 1.2523646 -0.41409084 0.16888666 -0.18300971 0.5272307 2.8744252 0.26569816 0.18120334 1.4863176
years 2.668247 -1.0348746 0.76198274 -1.7394378 1.8961744 -0.50942385 1.9097815 -0.31676617 2.4799235 2.0035703 -1.3083524 -1.8764012 -1.4683967 -2.8707721 -0.0015053083 -2.38159 -1.3153399 2.3929064 0.82114935 -1.8394761 -2.1174464 2.513157 -3.3225465 -1.4551233 -0.25622386 0.0066175396 -0.56347907 0.49743676 -0.5499958 2.1830633 0.46807435 -2.8394747 -1.5167199 2.349758 -0.8503168 -0.8211148 -1.6494706 2.2982154 -2.4933846 1.026992 -2.7677836 0.46199703 -2.001102 -1.3179729 0.69035435 -2.7882547 1.6021366 1.0092894 -1.8976063 1.086229 -1.664065 -2.7382133 -0.66628003 0.60927033 -1.5020616 1.1258686 3.158133 -0.97230583 -1.306814 -0.11271277 -0.6686294 1.7372584 -1.4110826 2.2107472 -1.7865953 -1.4335984 -0.5299343 -2.5909028 -1.2173517 1.1866338 -2.9912474 2.7706501 -3.3141837 1.4016488 1.3953986 1.1605425 2.399033 1.3187014 -3.0232365 2.3611598 -0.6070264 1.0664586 1.0558698 2.2796772 2.8756762 1.4851694 -2.270629 0.7442833 -1.6332364 2.0678103 -1.7069954 -1.00475 2.793162 -1.430017 -0.14886856 -1.535396 -0.9849008 2.8133366 -2.1770916 0.59364116
things 0.8643174 -0.6043844 0.3129984 -0.47631606 -1.1075857 -1.1354543 1.5324116 -1.3015995 1.1998466 0.65192837 -2.8321657 -0.9429305 -0.654287 0.86329657 -0.5673807 0.732593 -0.43882963 0.46725515 0.5998581 0.54097366 0.031437606 0.271564 -0.73911065 -1.1406844 -0.15111025 -0.9059251 1.1685884 0.91751873 1.3274475 0.38465902 1.0679063 -1.3931181 -0.75328594 -0.7633173 -1.7634468 -0.28051937 -0.20753714 -1.1885952 0.17417575 0.8047505 0.6705541 -0.44140863 -0.5400999 0.83328223 2.1668837 0.05807997 0.89032584 -0.09311103 1.8469498 -0.79501605 0.091694444 -0.99476856 -0.24334715 0.8323233 -0.41417444 2.5849519 -1.8535112 0.5219258 -1.6221269 2.4208963 0.68446517 0.37077022 -1.4095618 0.2039821 -0.5773605 1.4020016 -0.07378561 1.1708266 2.0531907 -0.75597924 0.25274685 -0.7373821 0.20938797 1.1234136 -0.27257517 -0.5853003 0.43349412 -0.0054916805 1.0958186 -1.8514428 -1.6465961 1.7247574 1.414292 0.89950246 -0.8948991 -1.4072129 -0.15852825 0.69664085 1.4410484 -1.7493542 -1.9545039 -0.43964544 -1.8397584 1.4629687 1.7593101 -0.62723714 1.354673 0.47158748 -2.045687 -1.3212615
other -0.17437956 -1.7726884 0.3993543 -0.08033425 1.0683726 -0.15119493 1.6367029 -0.90046674 -0.79060805 0.38788876 -1.4205164 -0.6547953 -0.18082663 0.645287 -0.12473117 1.7792923 0.4105011 1.0302113 -0.40148702 1.2741055 -0.64458704 0.6438132 -0.53461957 -1.1671821 0.7292981 -1.5809145 1.3292377 1.616971 0.25224447 -0.5410147 0.57924557 -0.4096177 -1.42392 -0.18532903 -1.3674599 0.26143458 1.5161895 0.39023665 -1.6841228 -0.60882854 -0.36735383 -2.315081 -0.31533396 0.96412015 -1.8206093 -0.64168024 -0.38939157 -1.0436441 1.0196164 -0.88907105 1.235996 -1.8337293 1.7774855 0.8552741 1.5090052 -1.6421906 -1.5513963 -2.9554923 0.6221069 0.28398758 1.7002625 1.5182776 0.3743603 0.45676622 0.40649217 1.5782496 0.91116214 2.4943435 1.0808587 -0.23691103 -0.8745083 -0.038103864 1.0081115 -1.94204 0.37102094 -0.5175072 0.7718642 -3.3095899 1.1274079 1.5419904 -0.10281169 1.2277523 2.5566666 -2.7077157 0.46735057 0.40415668 -0.117572196 -0.85994655 1.500404 1.0532378 0.866453 1.3628807 0.75523335 -0.2587197 -0.82931626 1.4863689 -0.39880744 -1.4729266 -0.7899933 0.51035106
no 1.7249076 0.071085915 -3.4689863 1.4964049 -1.9520395 -0.40257916 0.049491055 -0.5269953 -0.12667806 0.6048326 -2.2430227 0.7410909 0.28771845 0.30172798 -0.8372462 -0.57448596 0.2863494 2.9293957 0.010666766 0.2505537 0.62715596 0.05710715 1.4177837 1.0943347 -0.7035717 0.77544224 1.2541703 -1.5971013 1.6929452 0.5394986 0.45922244 1.118013 -0.0580885 -0.3627594 -0.43292227 -0.1486409 -0.7685646 1.0523956 0.5356731 0.22702776 -0.18431462 -0.7550237 -0.31529826 1.4316518 -1.1829925 0.982925 -0.48439136 -0.38756207 0.561492 0.25705814 -0.036207654 1.5187156 2.0081992 -0.6770089 1.1937017 1.1720899 1.253982 -0.119376145 -1.1981512 1.4272774 1.7677506 1.3445882 -0.2963876 -2.9153986 0.058664627 1.2428366 1.2313257 0.87376577 -0.15636744 -0.41980967 1.9170825 0.35716453 -1.0993358 0.6198284 0.5097619 0.5439756 -1.3011075 -0.5922381 0.8243187 0.9352864 2.0882726 0.55166614 -1.4754431 -0.55654305 -0.53574437 0.52638495 1.2785773 0.81345445 -1.1263689 1.7179197 1.8502191 -0.581362 1.6297411 0.07809906 1.0640209 -1.1451552 -0.11221254 -0.5598074 1.6800889 1.8530498
could 2.6780674 -0.89479476 1.2145331 -1.2098727 -1.6763409 -0.8007218 1.231007 0.46766636 -1.1787479 -0.2297432 -0.92846024 -1.2835686 0.79599524 -0.41929328 0.9402283 -0.8194198 2.0689342 1.4205971 -1.8017828 1.4814907 -0.60312426 -2.0002782 -2.079113 0.05362636 -1.6069053 0.45712787 -0.4439955 -0.22397505 -1.6216841 0.7670283 1.7322828 1.6255884 1.2372578 -0.7844489 2.0498242 1.0908197 -0.027570331 0.37354445 2.9041297 -1.6923845 -1.0644345 -0.19062756 0.86670154 -0.43179274 -0.9141806 0.9060186 2.2324395 0.049087163 -1.5120986 -0.36597195 0.31679687 0.077207275 -0.3305657 -0.79466516 -0.2283144 -0.64847046 -1.0058632 1.3017225 -0.75659096 1.2919337 -1.1336538 -2.2180598 0.15526499 -0.35543126 0.06770563 -0.28053203 -0.7940542 1.7006624 -1.0234607 1.9603447 0.9156483 -0.30472043 1.0500703 0.51638144 -0.21972923 -0.55559605 -0.20544137 1.1995854 -0.33568028 0.5742293 -1.6507773 0.78262013 1.0405356 -0.5621261 0.048853472 -0.6590662 0.4218622 -2.753288 -0.5407866 -0.81673473 2.3016932 1.1722016 0.51981187 -0.42004135 -1.9339069 0.33355704 2.5904562 0.71146846 -1.9931862 0.9981944
